svm_type c_svc
kernel_type rbf
gamma 8e-005
nr_class 2
total_sv 28292
rho 0.208849
label -1 1
nr_sv 14161 14131
SV
15 1:37.49118 2:4.6343117 3:-100.13293 
15 1:37.450195 2:4.2706108 3:-95.849609 
15 1:49.917587 2:5.3399849 3:21.396484 
15 1:44.487 2:5.2046299 3:26.9729 
15 1:34.224854 2:3.6794109 3:-166.05469 
15 1:38.823074 2:3.6434956 3:-149.14417 
15 1:49.972031 2:5.2957077 3:135.9646 
15 1:48.495392 2:5.9115028 3:273.08435 
15 1:39.649216 2:5.8192959 3:303.41699 
15 1:40.321899 2:5.158783 3:237.21277 
15 1:29.866089 2:3.5367546 3:-122.07141 
15 1:28.142624 2:3.2141838 3:-282.21582 
15 1:32.490021 2:3.5038624 3:-275.20569 
15 1:41.009293 2:5.449398 3:161.96985 
15 1:35.013947 2:5.4880142 3:192.46045 
15 1:28.776154 2:4.8910789 3:108.30322 
15 1:23.371887 2:4.3685284 3:-105.70813 
15 1:12.761673 2:3.857399 3:-219.69434 
15 1:10.061646 2:2.6057701 3:-341.97888 
15 1:9.0413055 2:1.4473381 3:-349.19446 
11.65932144338608 1:-28.697556 2:-1.5208607 3:-227.44519 
15 1:-31.687996 2:-2.9390583 3:-319.41736 
15 1:-34.571999 2:-3.7830849 3:-296.59155 
15 1:-39.624367 2:-4.263813 3:-213.69641 
15 1:-41.410675 2:-4.7251682 3:-311.10107 
15 1:-44.161362 2:-5.2039585 3:-379.50677 
15 1:-46.673332 2:-5.7143517 3:-391.23102 
15 1:-47.015907 2:-5.5345726 3:-345.14392 
15 1:11.4067 2:-3.5207939 3:-725.36987 
15 1:36.659523 2:-0.051065445 3:-462.81671 
15 1:64.884766 2:4.0792637 3:-54.803223 
15 1:89.706543 2:8.0227547 3:328.48608 
15 1:102.98799 2:10.145245 3:534.06567 
15 1:109.85715 2:10.860954 3:599.11829 
15 1:116.46656 2:10.74819 3:612.26941 
15 1:120.28158 2:10.309324 3:627.40637 
15 1:121.88686 2:10.520851 3:593.19751 
15 1:115.75598 2:10.508005 3:516.97522 
15 1:108.86655 2:10.038153 3:444.0177 
15 1:112.56441 2:9.1954708 3:503.92725 
15 1:115.22002 2:9.2907848 3:673.12695 
15 1:114.07925 2:9.5930214 3:702.30432 
15 1:119.82951 2:9.5812511 3:662.08667 
15 1:122.71272 2:9.5237751 3:547.20239 
15 1:116.25311 2:9.5309162 3:502.39819 
15 1:111.44095 2:9.2735825 3:505.87842 
15 1:120.61679 2:9.5642529 3:660.28491 
15 1:128.96379 2:10.695827 3:1011.2527 
15 1:131.24133 2:11.461781 3:1233.4668 
15 1:127.07204 2:11.493013 3:1250.7427 
15 1:124.35497 2:11.042551 3:1078.4065 
15 1:127.62953 2:10.499647 3:806.03137 
15 1:130.78419 2:10.543055 3:678.23999 
15 1:131.03731 2:10.772087 3:678.59705 
15 1:131.32013 2:11.338718 3:702.50623 
15 1:131.93294 2:11.960735 3:788.84167 
15 1:128.43901 2:11.998161 3:878.51904 
15 1:123.96498 2:11.593897 3:969.36792 
15 1:126.25432 2:11.092031 3:1079.834 
15 1:134.53986 2:11.569941 3:1293.9395 
15 1:137.69521 2:12.610901 3:1406.0007 
15 1:131.83386 2:13.163813 3:1426.6128 
15 1:118.71399 2:12.819626 3:1368.3918 
15 1:115.56271 2:11.754066 3:1106.8811 
15 1:121.52631 2:10.566383 3:844.07202 
15 1:122.06044 2:11.01926 3:845.18091 
15 1:118.70575 2:10.960606 3:867.51294 
15 1:102.44652 2:10.084414 3:680.09937 
15 1:67.597626 2:8.2841663 3:332.55676 
15 1:21.498062 2:6.1122608 3:2.0292969 
15 1:-39.694298 2:3.1229725 3:-313.25671 
15 1:116.083 2:17.53688 3:1570.0013 
15 1:107.83106 2:15.719685 3:986.57556 
15 1:106.31712 2:12.408504 3:-57.875977 
15 1:106.20531 2:11.424393 3:-332.84088 
15 1:109.26872 2:11.146593 3:-362.46777 
15 1:113.9376 2:11.496462 3:-274.05945 
15 1:123.95576 2:12.414181 3:-119.75415 
15 1:126.15273 2:13.272444 3:-43.430786 
15 1:119.06183 2:13.581553 3:-25.084839 
15 1:114.68254 2:13.329884 3:-74.062683 
15 1:119.52428 2:12.67288 3:-184.67633 
15 1:125.10432 2:12.365669 3:-247.5827 
15 1:120.25237 2:12.406954 3:-244.83234 
15 1:116.70143 2:12.650396 3:-190.57172 
15 1:118.24811 2:12.873075 3:-192.85608 
15 1:117.8105 2:12.774618 3:-214.50128 
15 1:117.75389 2:12.593559 3:-188.75256 
15 1:115.06807 2:12.351706 3:-85.883362 
15 1:117.30479 2:12.791651 3:43.528442 
15 1:124.40677 2:13.599352 3:47.254517 
15 1:127.6232 2:14.037605 3:113.38043 
15 1:123.50565 2:14.073727 3:178.21527 
15 1:120.62616 2:14.005915 3:220.12506 
15 1:120.1188 2:14.161434 3:314.64911 
15 1:116.8645 2:14.132803 3:460.54254 
15 1:116.64679 2:14.018719 3:741.96332 
15 1:117.73912 2:13.84503 3:966.36078 
15 1:119.14803 2:13.800947 3:1022.546 
15 1:120.49635 2:14.000494 3:1105.6924 
15 1:122.07452 2:14.347059 3:1290.8916 
15 1:116.57555 2:14.350399 3:1515.3796 
15 1:109.01398 2:13.947012 3:1654.3501 
15 1:107.89233 2:13.111931 3:1540.8464 
15 1:111.85587 2:13.027487 3:1598.1177 
15 1:108.06439 2:13.036699 3:1792.5234 
15 1:104.7579 2:12.955084 3:1922.0313 
15 1:103.82559 2:12.815514 3:1691.0291 
15 1:101.20399 2:12.764162 3:1389.4512 
15 1:102.42928 2:12.785467 3:1059.7952 
15 1:101.19386 2:12.769945 3:851.93195 
15 1:95.185242 2:12.478865 3:763.87787 
15 1:90.710052 2:11.972784 3:715.12555 
15 1:86.008514 2:11.109684 3:587.5589 
15 1:82.607834 2:10.292025 3:351.56049 
15 1:81.50589 2:9.4930553 3:175.59723 
15 1:87.835678 2:9.603075 3:172.07697 
15 1:98.813156 2:10.795942 3:362.17743 
15 1:106.02878 2:11.93049 3:599.50861 
15 1:106.33621 2:12.673033 3:740.99774 
15 1:107.10257 2:13.148979 3:638.13556 
15 1:103.06517 2:12.952333 3:468.87115 
15 1:95.082642 2:12.274715 3:356.2215 
15 1:91.332001 2:11.330109 3:363.05719 
15 1:91.744156 2:11.210678 3:465.39264 
15 1:90.424408 2:11.426538 3:453.84686 
15 1:84.10495 2:11.635172 3:289.86908 
15 1:69.873016 2:11.25177 3:87.554138 
15 1:58.946747 2:10.352118 3:-77.957825 
15 1:54.588333 2:9.186842 3:-198.91382 
15 1:48.461105 2:8.8711681 3:-292.85681 
15 1:35.501617 2:8.4203262 3:-364.93262 
15 1:28.328812 2:7.314642 3:-388.97546 
15 1:22.307907 2:5.0261288 3:-403.73242 
15 1:16.059357 2:3.2442818 3:-340.47437 
15 1:10.764481 2:2.51688 3:-237.55573 
15 1:8.3748779 2:2.8551788 3:-128.73822 
15 1:15.751343 2:4.7963219 3:70.614929 
15 1:-1.2286682 2:3.6016674 3:181.74762 
15 1:-5.489975 2:2.2959499 3:70.539246 
15 1:-7.5187988 2:2.7409611 3:85.975037 
15 1:-26.035248 2:0.8272171 3:-151.11523 
15 1:-42.348007 2:-4.2972279 3:-281.19788 
15 1:-46.308876 2:-5.4951038 3:-404.19809 
15 1:-42.301964 2:-5.823885 3:-331.10727 
15 1:-39.450394 2:-5.7109051 3:-326.49139 
15 1:-38.417992 2:-5.1332359 3:-332.02164 
15 1:-37.800011 2:-4.5757256 3:-238.0014 
15 1:-40.611618 2:-4.7063694 3:-273.82394 
15 1:-43.12355 2:-5.1160469 3:-359.33136 
15 1:-40.628639 2:-6.1706734 3:-380.33228 
15 1:-41.297668 2:-6.2799892 3:-337.1153 
7.186347905621367 1:-91.850815 2:0 3:302.32288 
15 1:22.645294 2:3.5180779 3:-96.311096 
15 1:-7.5373688 2:2.5767651 3:-74.187866 
15 1:29.1064 2:1.296339 3:-503.10052 
15 1:46.039017 2:1.3621674 3:-852.72797 
15 1:84.663376 2:3.5825157 3:-810.04736 
15 1:129.19647 2:8.6729965 3:-420.52124 
15 1:138.1665 2:10.610044 3:-137.44965 
15 1:114.84958 2:10.888691 3:37.447571 
15 1:70.060898 2:10.189154 3:166.92621 
15 1:60.871513 2:7.7038097 3:107.39075 
15 1:103.24844 2:7.8059044 3:270.9436 
15 1:122.29444 2:9.9681015 3:337.58472 
15 1:114.92885 2:10.512135 3:278.68707 
15 1:96.365074 2:10.17524 3:262.6012 
15 1:96.521065 2:10.234142 3:372.24023 
15 1:95.177704 2:11.47197 3:518.85596 
15 1:86.418541 2:11.691694 3:519.74597 
15 1:87.942574 2:11.304293 3:489.72974 
15 1:79.179871 2:10.202168 3:484.30579 
15 1:73.521568 2:9.2735214 3:476.75671 
15 1:77.200691 2:8.52491 3:391.53223 
15 1:73.999168 2:9.103838 3:472.37891 
15 1:68.563744 2:9.4119339 3:610.03149 
15 1:70.816368 2:9.6372662 3:645.11389 
15 1:58.125893 2:9.1864662 3:560.55603 
15 1:40.881119 2:8.3766823 3:539.19897 
15 1:32.000694 2:6.1168385 3:588.50256 
15 1:-13.250946 2:-2.4686546 3:279.28925 
15 1:52.782028 2:3.5666828 3:-76.414429 
15 1:49.429893 2:3.7971134 3:-85.47113 
15 1:41.264305 2:3.6316681 3:-91.59314 
15 1:-18.488014 2:-4.5936089 3:70.573181 
15 1:76.100822 2:3.8732052 3:570.04095 
15 1:79.537888 2:4.8445721 3:449.62628 
15 1:64.450882 2:4.8490009 3:378.08881 
15 1:-13.421989 2:-2.3967667 3:308.93781 
15 1:-14.661705 2:-3.9963551 3:279.63409 
15 1:56.187569 2:5.2817974 3:187.46893 
15 1:81.859291 2:8.7053032 3:628.05237 
15 1:101.08189 2:11.107491 3:1056.9771 
15 1:114.97181 2:13.079418 3:1368.3835 
15 1:130.38663 2:15.093781 3:1620.2434 
15 1:143.73337 2:16.479248 3:1477.4966 
15 1:147.28574 2:17.157135 3:1249.7814 
15 1:154.60214 2:17.644341 3:1067.2654 
15 1:164.77618 2:18.984726 3:954.27441 
15 1:169.65961 2:20.227276 3:1027.1326 
15 1:172.99533 2:21.083996 3:1231.951 
15 1:173.28098 2:21.561211 3:1502.5197 
15 1:171.24161 2:21.63892 3:1952.3308 
15 1:165.44073 2:21.334644 3:2157.7813 
15 1:166.80136 2:21.081871 3:2115.7104 
15 1:169.95316 2:21.152119 3:2023.0247 
15 1:170.31143 2:21.934761 3:1967.134 
15 1:169.50174 2:22.961361 3:1976.8584 
15 1:155.116 2:22.937202 3:1861.8071 
15 1:136.51796 2:22.158859 3:1492.2083 
15 1:126.67763 2:19.091839 3:790.61438 
15 1:115.61956 2:15.260048 3:346.15674 
15 1:91.831001 2:14.072269 3:203.07278 
15 1:60.179092 2:13.013088 3:126.99316 
15 1:36.503441 2:10.581125 3:-18.780914 
15 1:12.807648 2:6.1951504 3:-149.56879 
15 1:3.6320114 2:3.3081779 3:-152.97823 
15 1:-2.078476 2:1.8742886 3:-76.156769 
15 1:-31.676132 2:4.101162 3:-134.31403 
15 1:-29.213394 2:2.150629 3:-178.28986 
15 1:-7.7726288 2:6.1767387 3:52.306396 
15 1:-6.9490356 2:7.1721916 3:95.735199 
15 1:-12.000137 2:7.1922493 3:131.38489 
15 1:-15.729919 2:3.2929935 3:180.90393 
15 1:11.629211 2:4.7554512 3:576.52032 
15 1:-6.4324036 2:4.4484768 3:567.68109 
15 1:-30.953613 2:3.2839928 3:446.68713 
15 1:-17.589561 2:-0.7802124 3:105.96985 
15 1:-18.009995 2:-1.074667 3:344.10254 
15 1:-16.62294 2:-2.0462036 3:213.17944 
15 1:12.045921 2:3.7581139 3:17.05542 
15 1:54.493675 2:4.6229229 3:546.44531 
15 1:70.861473 2:6.2548313 3:606.55359 
15 1:85.374413 2:7.9732304 3:540.32898 
15 1:91.441498 2:8.6960735 3:255.14349 
15 1:92.243027 2:8.7267513 3:42.158813 
15 1:98.309303 2:8.8237877 3:-79.617126 
15 1:110.81283 2:11.173086 3:14.051697 
15 1:117.23857 2:12.412769 3:118.85266 
15 1:116.00259 2:12.550821 3:29.885681 
15 1:112.144 2:11.824512 3:-145.37769 
15 1:108.75514 2:10.254934 3:-267.6326 
15 1:92.192673 2:9.0230923 3:301.39014 
15 1:86.96756 2:8.861557 3:415.75714 
15 1:87.80954 2:8.6766205 3:616.90045 
15 1:93.811401 2:9.4225044 3:651.74762 
15 1:99.134171 2:10.677521 3:655.8194 
15 1:98.378281 2:10.857775 3:687.2182 
15 1:95.300323 2:10.263613 3:785.89801 
15 1:90.071503 2:8.8537846 3:904.03607 
15 1:92.658859 2:8.2155361 3:652.5733 
15 1:98.46405 2:8.6030846 3:336.66144 
15 1:92.969681 2:9.1666584 3:172.62573 
15 1:79.97879 2:9.1086407 3:83.690125 
15 1:78.572922 2:8.4322681 3:53.302979 
15 1:77.927856 2:7.4384766 3:129.62897 
15 1:79.482056 2:7.3203106 3:164.95441 
15 1:78.983337 2:7.8579617 3:54.407776 
15 1:70.882156 2:8.1397667 3:-35.68689 
15 1:61.395721 2:7.91008 3:-58.608276 
15 1:57.205276 2:7.063467 3:-99.167786 
15 1:59.182953 2:5.8898048 3:-95.558105 
15 1:62.346619 2:5.2050838 3:-64.361267 
15 1:57.645218 2:4.6026993 3:76.475952 
15 1:50.532715 2:4.8195286 3:164.66669 
15 1:-15.821274 2:-3.6159992 3:85.65033 
15 1:-17.289352 2:-3.436161 3:96.392883 
15 1:-17.435791 2:-4.4689274 3:81.360718 
15 1:-15.314079 2:-4.2111301 3:36.463623 
15 1:-16.271301 2:-3.9236526 3:52.40094 
15 1:-9.7209854 2:-4.0605335 3:-29.523926 
15 1:51.241829 2:2.8299713 3:471.90076 
15 1:73.178589 2:5.5123329 3:765.20325 
15 1:85.888107 2:7.2504158 3:1026.4965 
15 1:89.438271 2:7.7871952 3:1211.5525 
15 1:100.62595 2:8.7594013 3:1409.5662 
15 1:115.41853 2:10.830502 3:1622.947 
15 1:123.40164 2:12.260454 3:1773.1255 
15 1:126.68009 2:13.355255 3:1865.5518 
15 1:124.86093 2:14.041723 3:1849.1946 
15 1:119.78539 2:14.164066 3:1635.1904 
15 1:111.17667 2:13.593588 3:1436.6729 
15 1:112.42989 2:12.543421 3:1261.3243 
15 1:121.55547 2:12.654686 3:1181.3226 
15 1:124.08904 2:13.314375 3:1188.209 
15 1:130.42307 2:14.361305 3:1297.2834 
15 1:130.25186 2:15.18615 3:1438.5046 
15 1:125.7697 2:15.407471 3:1533.2612 
15 1:125.17783 2:15.128521 3:1440.2573 
15 1:116.06836 2:14.109581 3:1258.4497 
15 1:107.70537 2:13.176102 3:1102.1725 
15 1:113.32997 2:12.104063 3:1035.1646 
15 1:116.89299 2:12.112259 3:1196.347 
15 1:119.94849 2:12.439096 3:1312.0093 
15 1:125.57698 2:13.119534 3:1326.0093 
15 1:123.98311 2:13.497349 3:1343.1606 
15 1:125.26344 2:13.804651 3:1354.7119 
15 1:128.83205 2:14.185982 3:1294.8689 
15 1:127.79573 2:14.381361 3:1271.6426 
15 1:119.63007 2:14.153938 3:1295.0171 
15 1:109.82477 2:13.597273 3:1319.9795 
15 1:111.47102 2:12.747932 3:1205.6033 
15 1:122.63693 2:12.514105 3:1176.5677 
15 1:-30.34259 2:1.1241188 3:514.74799 
15 1:-35.321358 2:-4.7080441 3:-297.48938 
15 1:-25.528633 2:-4.0983906 3:-118.26947 
15 1:94.809296 2:5.3287601 3:1933.7705 
15 1:99.47998 2:6.8916626 3:1946.8916 
15 1:68.611343 2:7.0286465 3:1882.4114 
15 1:2.6820984 2:6.0911503 3:1739.979 
15 1:66.822052 2:4.2483139 3:663.01862 
15 1:75.006485 2:4.7233829 3:192.44763 
15 1:80.774567 2:5.8597336 3:106.10449 
15 1:80.635681 2:6.8368435 3:178.52167 
15 1:72.886322 2:6.9925385 3:283.98413 
15 1:74.886246 2:7.015501 3:465.54443 
15 1:82.526154 2:7.915266 3:763.58655 
15 1:83.964615 2:8.9647388 3:940.02124 
15 1:85.55986 2:9.2487125 3:1048.9009 
15 1:90.170349 2:9.2459564 3:1212.9122 
15 1:96.958054 2:10.193626 3:1445.8008 
15 1:101.93266 2:11.316479 3:1377.9941 
15 1:93.387604 2:11.407309 3:1191.4243 
15 1:90.276566 2:10.921936 3:979.6781 
15 1:91.015076 2:9.9907169 3:807.16272 
15 1:88.197021 2:10.067991 3:824.94507 
15 1:91.833359 2:10.206673 3:951.90002 
15 1:91.638351 2:10.198763 3:1057.9352 
15 1:86.437744 2:10.33736 3:1109.8702 
15 1:85.672272 2:10.009172 3:1217.6799 
15 1:99.933441 2:10.820177 3:1452.2622 
15 1:109.97018 2:12.762053 3:1654.6179 
15 1:105.43126 2:13.105394 3:1425.8154 
15 1:94.508453 2:12.717112 3:1159.3405 
15 1:90.602737 2:10.767355 3:846.25037 
15 1:74.483963 2:9.357626 3:744.17859 
15 1:44.973862 2:8.7060947 3:785.48804 
15 1:41.855637 2:6.6127071 3:857.68713 
15 1:-13.07753 2:-3.0273838 3:274.07556 
15 1:-14.739685 2:-4.9833241 3:245.06329 
15 1:-15.363449 2:-5.2368279 3:133.61804 
15 1:30.811172 2:5.5639973 3:269.04169 
15 1:-3.9291077 2:3.2479172 3:207.6532 
15 1:187.78566 2:26.812181 3:2661.4585 
15 1:168.88414 2:27.008249 3:2740.9995 
15 1:127.0085 2:26.425116 3:2854.2141 
15 1:101.79152 2:23.399214 3:2341.761 
15 1:86.777786 2:17.539732 3:1660.5686 
15 1:67.445396 2:13.742521 3:1367.9902 
15 1:44.229286 2:11.968102 3:1106.9316 
15 1:40.477509 2:9.0599785 3:344.35022 
15 1:53.922478 2:5.3534241 3:-232.26523 
15 1:61.298347 2:6.2792912 3:-214.66733 
15 1:64.470573 2:8.0910816 3:-42.377319 
15 1:78.283905 2:10.053425 3:173.18518 
15 1:85.76313 2:11.485929 3:253.59845 
15 1:74.404472 2:11.804272 3:248.92664 
15 1:59.896446 2:11.454191 3:207.37396 
15 1:45.333206 2:9.944252 3:101.73999 
15 1:45.84211 2:8.2965527 3:40.735596 
15 1:62.050255 2:8.3268929 3:30.445557 
15 1:66.399269 2:9.184227 3:94.24707 
15 1:65.449089 2:9.6266308 3:93.461304 
15 1:74.237801 2:10.037565 3:96.212158 
15 1:76.73481 2:10.497849 3:149.84253 
15 1:74.897911 2:10.930508 3:250.59497 
15 1:79.789398 2:11.487684 3:366.04254 
15 1:86.95871 2:11.823086 3:359.53564 
15 1:95.497375 2:12.135578 3:342.9552 
15 1:96.864731 2:12.446657 3:376.26599 
15 1:89.224869 2:12.58235 3:398.28656 
15 1:84.966522 2:12.373627 3:405.42279 
15 1:89.404633 2:12.061951 3:452.26526 
15 1:92.935287 2:12.077023 3:428.02374 
15 1:98.079086 2:12.339966 3:383.49414 
15 1:95.238831 2:12.081087 3:312.97162 
15 1:87.230087 2:11.405388 3:255.25128 
15 1:84.722977 2:10.29607 3:168.93958 
15 1:82.569839 2:9.5589294 3:132.50708 
15 1:67.720093 2:8.8729744 3:109.5191 
15 1:61.806 2:8.2846642 3:57.355835 
15 1:64.120163 2:8.0022163 3:67.365723 
15 1:64.654358 2:8.1737156 3:125.09204 
15 1:74.256607 2:8.779707 3:148.74188 
15 1:75.117203 2:9.40061 3:182.54712 
15 1:62.474548 2:9.4247456 3:194.49438 
15 1:43.855896 2:8.7370472 3:152.30365 
15 1:37.657104 2:7.2487507 3:23.648193 
15 1:37.978363 2:5.7432041 3:-98.489075 
15 1:32.873001 2:5.4444408 3:-51.901337 
15 1:28.605927 2:5.3374825 3:51.754578 
15 1:30.874832 2:5.2450657 3:132.43994 
15 1:26.862747 2:5.0535069 3:117.31085 
15 1:28.809586 2:4.9960213 3:101.20367 
15 1:30.923859 2:4.9801579 3:71.100403 
15 1:27.448303 2:5.0588627 3:35.298096 
15 1:29.948959 2:5.2517128 3:36.42334 
15 1:42.757156 2:6.4785595 3:137.18011 
15 1:35.194382 2:6.9619827 3:175.37524 
15 1:15.424927 2:6.7147484 3:183.96613 
15 1:3.1954803 2:5.0306683 3:118.17395 
15 1:1.0501556 2:2.9687366 3:2.3328857 
15 1:34.413712 2:5.8896103 3:196.3114 
15 1:36.082123 2:6.885128 3:275.88037 
15 1:26.971603 2:7.0763378 3:318.60883 
15 1:1.2320862 2:6.4277859 3:336.08716 
15 1:-23.568779 2:-0.19588852 3:-178.439 
15 1:-27.768341 2:-1.2895451 3:-187.38235 
15 1:-31.498611 2:-2.55756 3:-221.30316 
15 1:-5.2665482 2:4.7107391 3:47.553955 
15 1:-19.317795 2:1.1940327 3:-136.03427 
3.700950753224864 1:-23.959457 2:-1.4860592 3:-177.00919 
15 1:-21.885338 2:-1.1463604 3:-103.68256 
15 1:-25.922714 2:-1.09655 3:-142.06451 
15 1:-26.286575 2:-1.2297211 3:-196.91135 
15 1:-26.867004 2:-1.4132404 3:-117.62149 
15 1:-29.080467 2:-1.700222 3:-155.1384 
15 1:-21.27166 2:-1.336359 3:-116.04114 
15 1:-16.870956 2:-0.38424301 3:-99.706635 
15 1:-18.348221 2:0.50307465 3:123.6264 
12.15626881897908 1:-17.250702 2:-1.0225468 3:85.929443 
15 1:-15.189232 2:-0.68358231 3:220.97723 
4.219598998736682 1:-16.116425 2:-1.8060818 3:142.94604 
15 1:-79.363167 2:-5.2074127 3:-16.177185 
15 1:-12.014885 2:-5.4401913 3:-30.826904 
15 1:-26.471176 2:-6.0878773 3:393.48901 
15 1:-15.283585 2:-4.8744087 3:278.82642 
15 1:-12.956589 2:-4.3157158 3:309.27246 
4.298537545713186 1:-75.529572 2:-5.4326077 3:1219.8466 
13.98394448731402 1:-34.136139 2:-5.1527843 3:756.58423 
0.134919707407086 1:-25.757668 2:-4.0330276 3:810.02356 
15 1:-17.779091 2:-0.61857033 3:92.2995 
15 1:-15.755478 2:-0.43719673 3:110.66412 
15 1:-16.54348 2:-0.36891937 3:85.737122 
15 1:3.0962029 2:2.902463 3:40.91748 
15 1:75.324196 2:7.049942 3:154.65686 
15 1:84.76944 2:8.6065216 3:91.476074 
15 1:70.384117 2:8.7065792 3:67.252563 
15 1:42.903702 2:8.5603752 3:14.036865 
15 1:20.605415 2:7.4235744 3:-66.676636 
15 1:10.837021 2:3.6273232 3:-306.67926 
15 1:-14.211472 2:-2.5369358 3:304.20526 
15 1:34.282814 2:2.8967342 3:-217.40308 
15 1:32.924728 2:3.1302223 3:-181.87946 
15 1:29.826561 2:3.1275406 3:-96.954956 
7.444462418534108 1:-18.509857 2:-2.6320591 3:89.018372 
15 1:38.892532 2:4.746994 3:113.48422 
15 1:53.313576 2:7.2673225 3:213.81494 
15 1:44.79068 2:7.8424664 3:209.93692 
15 1:-3.8583984 2:7.6811066 3:53.127411 
15 1:-14.016602 2:6.0851097 3:-76.478516 
15 1:-20.835144 2:4.8513832 3:-144.22995 
15 1:-25.312515 2:3.4436836 3:-202.0573 
15 1:-28.732849 2:2.3580341 3:-237.32538 
15 1:-33.065826 2:1.7417431 3:-239.49489 
15 1:-37.124908 2:1.2011814 3:-208.82254 
15 1:-19.569199 2:0.48607826 3:353.46594 
15 1:-20.493866 2:1.1759682 3:473.8175 
15 1:-9.8466492 2:3.0795479 3:277.83774 
15 1:-9.9508362 2:3.6584148 3:193.47971 
15 1:-15.87867 2:-3.1357346 3:92.822327 
15 1:-15.181931 2:-2.968071 3:156.36606 
15 1:-13.639946 2:-3.0243702 3:281.52957 
15 1:31.214195 2:4.6254597 3:89.25708 
15 1:20.766861 2:3.946825 3:-147.42255 
15 1:17.637894 2:3.2176113 3:-247.73965 
15 1:15.364922 2:2.7336235 3:-267.62149 
15 1:14.628639 2:2.3035545 3:-220.05214 
15 1:78.454559 2:15.075314 3:1603.4509 
15 1:65.234299 2:12.27931 3:1461.8253 
15 1:48.222046 2:8.749445 3:1127.0963 
15 1:56.446304 2:9.5269241 3:1076.7773 
15 1:51.362076 2:10.001041 3:1110.6316 
15 1:35.561066 2:9.7966881 3:1135.4553 
15 1:6.949173 2:5.1243114 3:619.85205 
15 1:-15.893585 2:1.8318748 3:833.01001 
15 1:-21.143814 2:1.0041199 3:681.42957 
15 1:-22.012375 2:0.080879211 3:561.73389 
15 1:-26.961777 2:-0.4131794 3:511.49188 
15 1:-23.816147 2:-0.44143867 3:688.32776 
13.50588137752117 1:-22.876907 2:-0.27916718 3:524.33929 
15 1:-17.618927 2:0.14902878 3:345.43744 
15 1:-19.018051 2:0.96765709 3:516.60577 
15 1:-23.008972 2:0.74230194 3:562.11792 
15 1:-24.907745 2:-0.25324059 3:529.59869 
15 1:-12.20871 2:1.9217224 3:577.2738 
15 1:-11.851013 2:2.0764313 3:533.17944 
15 1:-15.421265 2:1.589035 3:575.29974 
15 1:-17.506592 2:0.66041946 3:603.3208 
15 1:-18.201263 2:-0.068908691 3:593.32544 
15 1:17.508583 2:2.1032047 3:-163.43469 
15 1:19.364693 2:2.6123085 3:-215.64984 
15 1:21.239693 2:3.2231808 3:-210.87897 
15 1:17.766624 2:3.7371731 3:-169.92897 
15 1:13.553818 2:3.9006138 3:-99.13118 
15 1:-19.433441 2:-1.3728161 3:-96.741776 
15 1:-23.014221 2:-1.8043957 3:-141.35464 
15 1:-33.933578 2:-2.6015263 3:-168.96442 
15 1:-25.930908 2:-3.7194538 3:-114.35841 
15 1:-26.362923 2:-3.5113602 3:-110.97057 
15 1:-26.867783 2:-3.4012203 3:-123.69121 
15 1:-16.28447 2:-3.4714565 3:78.177185 
15 1:-16.685402 2:-3.5077057 3:96.933167 
15 1:70.79644 2:9.3235645 3:-27.642395 
15 1:96.281265 2:11.036221 3:-114.53391 
15 1:89.645355 2:10.585155 3:-135.54156 
15 1:60.130447 2:9.2387924 3:-141.25687 
15 1:7.7292023 2:7.4720726 3:-138.90445 
15 1:-14.773697 2:4.5819988 3:-171.13225 
2.324482334506322 1:-128.78299 2:-0.70917511 3:779.81177 
15 1:52.962147 2:7.9246864 3:51.049744 
15 1:92.585472 2:12.226574 3:46.901932 
15 1:134.09431 2:16.942575 3:157.44197 
15 1:168.089 2:21.730951 3:358.23157 
15 1:177.83742 2:23.978571 3:395.31097 
15 1:174.1483 2:24.698816 3:400.20471 
15 1:72.862686 2:12.603755 3:735.72357 
15 1:81.509857 2:13.268573 3:896.51752 
15 1:76.706902 2:13.622436 3:964.40521 
15 1:62.882095 2:13.271471 3:970.35089 
15 1:55.938667 2:11.818924 3:850.60718 
15 1:58.628815 2:11.890484 3:617.08167 
15 1:59.102547 2:12.753443 3:574.10565 
15 1:62.137703 2:13.373416 3:644.47815 
15 1:62.198051 2:13.40383 3:696.41339 
15 1:51.234573 2:12.787447 3:692.74414 
15 1:46.011292 2:11.499328 3:602.4295 
15 1:52.608253 2:8.8923159 3:553.45294 
15 1:50.111443 2:9.0793514 3:645.80292 
15 1:39.633896 2:9.1926489 3:765.30994 
15 1:41.105751 2:9.2774916 3:880.88843 
15 1:27.841438 2:9.258935 3:911.99615 
15 1:-1.2498932 2:8.6703472 3:933.4798 
15 1:30.840202 2:6.0812988 3:407.09814 
15 1:4.9765167 2:6.0589972 3:468.61816 
15 1:19.8629 2:2.4471893 3:-178.1355 
15 1:16.998734 2:2.3223877 3:-178.81323 
15 1:36.579376 2:4.364027 3:142.59247 
15 1:60.106476 2:7.7415962 3:726.91132 
15 1:53.838188 2:7.9992504 3:764.73694 
15 1:19.982605 2:7.1506424 3:674.57489 
15 1:-12.80571 2:5.9308815 3:501.04083 
15 1:-17.195389 2:1.6743202 3:-184.4198 
15 1:-30.345627 2:-3.8235474 3:-287.05414 
15 1:-26.809952 2:-1.2148361 3:-157.67993 
14.71621416068734 1:-52.323204 2:-6.4700871 3:-431.00934 
15 1:-52.245674 2:-6.8280678 3:-421.79614 
7.229387968220238 1:-44.518608 2:-6.8653107 3:-282.68549 
15 1:-39.315712 2:-7.1637344 3:-244.97214 
15 1:-37.24791 2:-6.8402767 3:-242.76062 
15 1:-38.097305 2:-6.6603909 3:-272.25299 
15 1:-36.887405 2:-6.6372433 3:-313.11853 
15 1:-35.451141 2:-6.1853771 3:-297.71268 
15 1:-37.034821 2:-5.8083668 3:-240.4899 
15 1:-18.358681 2:-5.1534309 3:61.872375 
15 1:-20.589584 2:-5.1071491 3:-102.7439 
15 1:-17.32795 2:-4.261488 3:227.06427 
15 1:21.359604 2:4.9433861 3:-240.96896 
15 1:22.509872 2:3.9139633 3:-259.04907 
15 1:29.81279 2:1.7475128 3:-277.22073 
15 1:22.402664 2:1.3892593 3:-256.04608 
15 1:-15.540779 2:-2.021534 3:184.73108 
15 1:-14.27684 2:-1.3360748 3:205.09283 
15 1:-11.385468 2:0.58372879 3:-94.300323 
5.859064218011187 1:-16.775223 2:-1.8794708 3:131.16473 
15 1:-15.595413 2:-0.92830467 3:193.48538 
5.905160747658614 1:-15.091911 2:-3.1760616 3:195.68854 
15 1:-14.693794 2:-1.6060734 3:207.59042 
4.550931024698717 1:-15.861542 2:-2.2469406 3:153.10114 
15 1:61.307594 2:6.3643055 3:833.34387 
15 1:58.963318 2:7.4458675 3:817.91394 
15 1:26.604858 2:7.3302288 3:749.49438 
15 1:2.1703491 2:5.9918575 3:575.19556 
15 1:79.566711 2:6.1022186 3:-44.707947 
15 1:76.411957 2:7.1039906 3:-112.47351 
15 1:42.353088 2:6.9614964 3:-158.67706 
15 1:-1.7069016 2:5.6729221 3:-216.85791 
9.841889957701426 1:51.427719 2:6.636694 3:2293.2805 
15 1:70.250183 2:5.5206051 3:945.00293 
15 1:68.789627 2:6.716507 3:801.83801 
15 1:44.463821 2:6.7225533 3:737.00244 
15 1:-35.284691 2:-6.0499115 3:732.32123 
15 1:-34.555603 2:-6.3406773 3:452.97998 
15 1:-33.020836 2:-5.8695736 3:398.40338 
15 1:-30.628822 2:-6.1337166 3:427.02698 
15 1:-27.071762 2:-6.1721764 3:383.23438 
15 1:-17.889038 2:-4.8141689 3:328.64575 
15 1:-15.892525 2:-4.6759033 3:286.92078 
15 1:-11.951134 2:-4.0404396 3:295.01746 
15 1:-13.871193 2:-4.293232 3:225.90137 
15 1:-15.414673 2:-4.5314445 3:137.76508 
15 1:-14.684166 2:-4.869175 3:71.004395 
15 1:-14.778336 2:-4.9043846 3:48.700378 
15 1:13.638443 2:5.3416786 3:503.79846 
15 1:13.225166 2:3.4014778 3:-181.16541 
13.92388545496914 1:13.595123 2:4.0481415 3:-60.620605 
15 1:8.056366 2:3.8225613 3:36.488159 
15 1:3.1419754 2:1.1735039 3:-424.78021 
15 1:0.37242126 2:0.71348572 3:-435.01733 
9.98514442041218 1:19.254868 2:1.6933784 3:1732.6038 
15 1:52.437393 2:4.9865437 3:2528.5676 
15 1:70.228302 2:7.7101498 3:3324.5818 
15 1:72.810318 2:9.1281891 3:3617.6218 
15 1:61.178604 2:9.4178638 3:3431.8848 
15 1:45.672791 2:8.8412952 3:2868.3149 
15 1:38.220337 2:7.5288715 3:2065.4407 
15 1:-15.609238 2:-3.4797802 3:207.12241 
15 1:-17.118988 2:-3.6823273 3:121.58865 
15 1:-16.164459 2:-3.7866879 3:304.0593 
15 1:-14.942581 2:-3.3864479 3:223.62064 
15 1:-12.574387 2:-4.3033543 3:302.7963 
15 1:-16.802536 2:-4.98979 3:330.83975 
15 1:-16.440948 2:-3.8847008 3:315.0498 
15 1:-14.827087 2:-5.0934544 3:169.21225 
15 1:60.49662 2:3.8921509 3:226.66156 
15 1:60.676903 2:4.9745941 3:405.39783 
15 1:34.88488 2:4.908514 3:429.77515 
15 1:-10.420143 2:-0.9910183 3:-63.273529 
15 1:-19.420822 2:-3.5969696 3:334.44147 
15 1:-17.546196 2:-3.267704 3:116.36072 
15 1:-17.354874 2:-3.2472363 3:83.127411 
15 1:-13.822571 2:-3.7378025 3:252.29016 
15 1:-14.218262 2:-3.3846836 3:255.27661 
15 1:20.057953 2:3.4549179 3:-123.6665 
15 1:15.66507 2:3.2415695 3:-145.74866 
15 1:31.225128 2:3.6219425 3:-438.87189 
15 1:43.871819 2:5.3615627 3:-456.42493 
15 1:33.473579 2:5.1839981 3:-417.14954 
15 1:30.596512 2:4.328146 3:-419.58209 
15 1:40.258492 2:2.862854 3:-471.80646 
15 1:31.101273 2:2.5971088 3:-473.7912 
15 1:7.8738403 2:2.2956676 3:-436.37976 
15 1:12.233459 2:1.3689976 3:-341.93262 
15 1:33.05719 2:2.5869236 3:-244.56085 
15 1:58.150009 2:6.3274364 3:-239.02545 
15 1:77.077019 2:8.1735344 3:-102.29633 
15 1:91.834053 2:9.4754105 3:38.673828 
15 1:90.027817 2:10.392736 3:121.57965 
15 1:68.287384 2:10.85066 3:158.96661 
15 1:55.348213 2:10.682144 3:153.35541 
15 1:56.650421 2:10.185555 3:139.32397 
15 1:48.127495 2:9.0516872 3:134.18732 
15 1:36.880936 2:8.1586361 3:67.184326 
15 1:33.333946 2:5.9400806 3:-7.1500854 
15 1:39.591858 2:3.9207935 3:-68.016052 
15 1:48.37645 2:4.3772984 3:71.775818 
15 1:51.385422 2:5.682148 3:280.03253 
15 1:50.721565 2:6.4847889 3:383.10638 
15 1:53.394554 2:6.6826553 3:304.0351 
15 1:56.549377 2:6.7001038 3:213.64697 
15 1:62.20826 2:7.2603951 3:279.45746 
15 1:66.40374 2:8.4786434 3:407.12579 
15 1:62.149475 2:8.9187164 3:486.19037 
15 1:59.429771 2:8.575695 3:536.56757 
15 1:61.915283 2:7.6753197 3:470.13434 
15 1:66.397408 2:7.4788837 3:423.3089 
15 1:67.061569 2:7.7308178 3:438.77203 
15 1:66.156593 2:8.0895596 3:518.28278 
15 1:73.991737 2:8.5506802 3:705.09918 
15 1:74.26667 2:8.8101177 3:942.51581 
15 1:58.097763 2:8.5473003 3:1020.7657 
15 1:42.445068 2:7.7447491 3:968.03717 
3.514904431336795 1:-17.48613 2:-3.3184452 3:203.9325 
15 1:-15.165009 2:0.13871002 3:306.97015 
15 1:-20.425766 2:0.10760117 3:346.92584 
15 1:-30.36808 2:-0.50904846 3:662.60663 
15 1:-21.607468 2:-0.32493401 3:-98.407776 
15 1:-5.307724 2:1.0639668 3:-69.309174 
15 1:81.012573 2:9.0677395 3:647.31793 
15 1:100.92653 2:11.945129 3:739.05963 
15 1:86.53891 2:12.550753 3:726.29608 
15 1:33.889328 2:12.135523 3:714.63507 
15 1:-4.39534 2:10.095465 3:633.33392 
15 1:-3.7952423 2:3.9576302 3:276.70349 
15 1:102.19612 2:11.558994 3:3215.7048 
15 1:99.050171 2:11.340591 3:3299.1487 
15 1:103.06487 2:11.184053 3:3303.9868 
15 1:100.73535 2:11.394964 3:3358.3672 
15 1:84.246078 2:11.219501 3:3276.7473 
15 1:58.465363 2:10.365894 3:3052.5942 
15 1:59.350388 2:8.7493382 3:2281.394 
15 1:58.362839 2:6.2162838 3:905.28516 
15 1:44.716736 2:4.8900547 3:509.12051 
15 1:52.514847 2:5.110939 3:512.65613 
15 1:52.745941 2:5.3119106 3:557.38904 
15 1:49.388153 2:5.2476959 3:575.59644 
15 1:-29.671661 2:0.99328613 3:1053.4269 
15 1:-29.135971 2:-5.4388142 3:948.69885 
15 1:21.679672 2:-2.6681595 3:-303.09943 
9.028010110609746 1:18.433151 2:-2.3722286 3:-286.83505 
15 1:-1.3871307 2:2.3306637 3:-41.809998 
15 1:35.451828 2:8.4997559 3:511.83386 
15 1:33.484772 2:6.0375843 3:470.37964 
6.807558352997008 1:37.977875 2:6.1525993 3:707.9292 
15 1:43.606247 2:6.7041111 3:772.83716 
15 1:42.813934 2:7.0301838 3:775.02808 
15 1:45.053391 2:7.0967751 3:842.43347 
15 1:51.134659 2:7.1209164 3:931.64917 
15 1:53.154999 2:7.1136265 3:866.42603 
15 1:51.888306 2:7.085659 3:852.45471 
15 1:51.903152 2:7.2916737 3:961.68872 
15 1:50.976669 2:7.5296516 3:1137.0455 
15 1:46.999893 2:7.7356567 3:976.68152 
15 1:46.889435 2:7.5449238 3:833.65894 
15 1:47.582886 2:6.9941978 3:649.20056 
15 1:50.371475 2:6.9441967 3:522.07092 
15 1:55.874695 2:7.3238792 3:551.9502 
15 1:58.783356 2:7.645607 3:714.32605 
15 1:56.526016 2:7.7803764 3:875.91724 
15 1:46.489441 2:7.3842201 3:888.29565 
15 1:43.110168 2:6.6880856 3:708.18469 
15 1:48.515869 2:6.20718 3:516.51367 
15 1:43.088699 2:6.1557941 3:442.19421 
15 1:32.088913 2:5.9662685 3:341.62152 
12.14847753506216 1:22.401917 2:5.356329 3:222.04517 
15 1:-10.098114 2:3.8270035 3:278.70306 
15 1:-18.387558 2:2.0854778 3:138.26654 
14.90719014325963 1:-28.271011 2:-0.85659409 3:429.1228 
15 1:-26.956497 2:-0.58679771 3:489.16907 
15 1:16.314423 2:2.308382 3:-162.65558 
15 1:10.36692 2:2.2922153 3:-287.40155 
15 1:10.791916 2:2.2915573 3:-326.39386 
15 1:14.150124 2:2.3432693 3:-340.06561 
15 1:16.310387 2:2.0776825 3:-283.78253 
15 1:9.010643 2:1.5131989 3:-296.49017 
15 1:7.8299789 2:1.071537 3:-410.76782 
15 1:7.9659195 2:0.5445137 3:-442.58871 
15 1:8.0516739 2:0.43663025 3:-408.75327 
15 1:11.407104 2:0.72966194 3:-390.72906 
15 1:14.774521 2:1.4746857 3:-388.04568 
15 1:13.210823 2:1.8152294 3:-335.73877 
15 1:9.1946411 2:1.5828972 3:-254.88718 
15 1:119.46022 2:14.390392 3:2143.0322 
15 1:175.89627 2:21.466927 3:4180.6558 
15 1:191.8913 2:24.220741 3:4725.168 
15 1:174.98172 2:24.862598 3:4619.0342 
15 1:116.8194 2:24.512096 3:4383.0249 
15 1:42.130966 2:22.427177 3:3604.1914 
15 1:34.372406 2:16.255905 3:1554.4622 
15 1:22.118446 2:6.1212425 3:67.129395 
5.518414403503502 1:10.851509 2:3.9069958 3:-9.354187 
15 1:17.97049 2:1.8589134 3:-199.75183 
15 1:21.75782 2:2.9830132 3:-123.83844 
15 1:84.742004 2:8.4305458 3:378.00281 
15 1:91.924843 2:10.493702 3:338.901 
15 1:67.820763 2:10.874388 3:292.57935 
15 1:25.356186 2:10.263901 3:231.24396 
15 1:-15.670013 2:0.67643738 3:337.3396 
15 1:-27.376152 2:-5.1037846 3:386.42737 
15 1:-15.752869 2:-3.3175011 3:270.92746 
15 1:-15.881477 2:-4.7300053 3:128.33585 
15 1:-21.020538 2:-4.7884312 3:-100.56808 
15 1:-16.380966 2:-4.8890438 3:268.78909 
15 1:-17.60331 2:-5.1488438 3:98.069916 
15 1:-15.122253 2:-1.2898426 3:154.13058 
11.42453046144463 1:-16.620659 2:-1.6664543 3:185.78564 
15 1:-20.738533 2:-3.0692844 3:-109.72964 
15 1:-21.419434 2:-3.4157848 3:-107.23065 
15 1:60.495605 2:2.0823135 3:-77.463928 
15 1:61.686447 2:2.8985844 3:-108.99698 
15 1:68.534348 2:3.5457211 3:-75.787262 
15 1:73.848755 2:4.3085613 3:52.74173 
15 1:72.35881 2:3.9667091 3:68.090393 
15 1:73.138885 2:3.5442543 3:50.953766 
15 1:73.07135 2:4.2111664 3:32.95108 
15 1:71.442612 2:4.7732582 3:-22.237549 
15 1:73.518265 2:4.6997814 3:-60.026123 
15 1:77.753372 2:4.2532883 3:-61.401306 
15 1:82.922195 2:4.6550636 3:67.998535 
15 1:85.428391 2:5.123457 3:-70.240234 
15 1:88.264618 2:5.4293861 3:-130.05956 
15 1:89.255051 2:5.5543766 3:-105.4985 
15 1:81.339111 2:5.4366112 3:-43.503815 
15 1:65.684067 2:4.9683609 3:84.931915 
15 1:54.769196 2:4.1376038 3:175.93777 
15 1:57.29306 2:4.6428261 3:315.2261 
15 1:49.525208 2:5.4754543 3:576.34302 
15 1:-19.455841 2:1.1043243 3:597.66968 
6.864966454313907 1:-34.147476 2:-5.8198833 3:-156.68234 
15 1:-32.641586 2:-5.8141041 3:-151.49998 
15 1:-27.268509 2:-5.8109856 3:-134.10535 
15 1:-30.399361 2:-6.4313431 3:-114.97906 
15 1:-28.29377 2:-6.65415 3:-128.87077 
15 1:-26.090515 2:-6.7407818 3:-111.19138 
15 1:-25.255508 2:-7.0170879 3:-127.84285 
15 1:-25.062553 2:-6.5270786 3:-123.25047 
15 1:-26.726761 2:-6.3752174 3:-109.61916 
15 1:-18.175583 2:-5.1615887 3:50.761658 
15 1:103.50636 2:23.313755 3:1062.5149 
15 1:96.607224 2:18.73497 3:964.35773 
15 1:89.422668 2:15.03019 3:986.12115 
15 1:70.81076 2:14.275726 3:1067.1028 
15 1:40.944885 2:13.044077 3:1084.5068 
15 1:17.448181 2:10.221956 3:1075.8511 
15 1:-4.9483948 2:3.9311562 3:587.84686 
15 1:-11.810944 2:2.7683582 3:445.98206 
15 1:-17.206299 2:1.4941101 3:323.82532 
15 1:-18.135193 2:1.4998932 3:324.44281 
15 1:-13.155212 2:-0.94460106 3:169.38553 
15 1:44.26754 2:5.3142204 3:510.97302 
15 1:80.959747 2:10.278299 3:911.32239 
15 1:87.977837 2:11.867149 3:881.45349 
15 1:63.278053 2:11.947218 3:806.40515 
15 1:23.664085 2:10.960976 3:693.42957 
15 1:18.581268 2:7.6266499 3:365.67236 
15 1:46.130608 2:5.3947182 3:213.56 
15 1:79.174858 2:9.5909786 3:883.84003 
15 1:87.846375 2:11.596998 3:1242.262 
15 1:70.064346 2:11.787832 3:1307.5867 
15 1:60.513054 2:11.226183 3:1271.0684 
15 1:72.951904 2:9.9978828 3:912.10431 
15 1:77.250122 2:10.124327 3:913.71259 
15 1:69.44928 2:9.9676552 3:921.92401 
15 1:63.346054 2:9.1237278 3:821.48236 
15 1:67.581863 2:7.9660625 3:684.21796 
15 1:70.249016 2:7.8267002 3:672.64581 
15 1:70.884254 2:8.3721275 3:801.26678 
15 1:83.446892 2:8.6615047 3:1147.77 
15 1:134.25073 2:14.28322 3:2754.0442 
15 1:156.15747 2:17.508608 3:3748.1589 
15 1:142.82553 2:18.300211 3:3949.6116 
15 1:94.268356 2:18.05551 3:3952.6746 
15 1:64.145599 2:16.193071 3:3264.0564 
15 1:60.021347 2:9.9177837 3:1039.7485 
15 1:57.355896 2:6.9610882 3:253.62085 
15 1:53.017899 2:6.9405823 3:242.99072 
15 1:47.508072 2:6.6571121 3:353.86255 
15 1:47.00827 2:6.1288109 3:537.81506 
15 1:44.774902 2:5.775795 3:622.87854 
15 1:47.798737 2:4.0997086 3:98.933411 
15 1:62.43251 2:5.5088158 3:208.02423 
15 1:79.186279 2:7.460125 3:408.87189 
15 1:95.279037 2:9.35606 3:651.96466 
15 1:104.82672 2:10.837526 3:861.44684 
15 1:108.61786 2:11.565487 3:933.28937 
15 1:110.7397 2:11.594988 3:839.935 
15 1:115.66139 2:11.488695 3:740.95306 
15 1:117.43971 2:11.344215 3:719.4715 
15 1:117.06317 2:11.256107 3:782.96307 
15 1:119.94777 2:11.773664 3:894.26862 
15 1:120.29759 2:12.493593 3:979.52704 
15 1:117.07101 2:13.01561 3:927.85614 
15 1:118.48691 2:13.883268 3:886.1684 
15 1:-18.084015 2:-4.7846603 3:119.37579 
15 1:-15.220726 2:-4.4236641 3:74.047485 
15 1:-10.160522 2:-3.6057796 3:-40.423584 
15 1:-16.137634 2:-2.7281418 3:247.78558 
15 1:-15.874207 2:-3.591547 3:192.31238 
15 1:-11.197563 2:-3.9279461 3:-11.475891 
15 1:47.898872 2:4.2610226 3:365.70026 
15 1:78.8685 2:8.5238419 3:469.3924 
15 1:79.016632 2:9.6409359 3:428.18433 
15 1:56.573723 2:9.9925938 3:425.76904 
15 1:9.4901352 2:9.411869 3:414.92285 
15 1:-12.882462 2:6.9425735 3:395.80896 
15 1:89.679504 2:10.667377 3:2161.5459 
15 1:91.604401 2:11.37221 3:2701.8765 
15 1:90.037415 2:11.508646 3:2893.6917 
15 1:84.999283 2:11.066914 3:2768.656 
15 1:84.922623 2:10.290726 3:2692.6926 
15 1:84.740097 2:9.8249798 3:2599.5432 
15 1:79.114685 2:9.4171238 3:2504.3674 
15 1:79.600891 2:9.4541798 3:2414.635 
15 1:83.564178 2:10.34012 3:2366.0598 
15 1:86.624664 2:11.248545 3:2359.4011 
15 1:81.567856 2:11.397446 3:2260.0977 
15 1:75.897797 2:10.900608 3:2196.2266 
15 1:72.743713 2:9.853281 3:2169.314 
15 1:76.254181 2:9.5839005 3:2047.2808 
15 1:76.325836 2:9.4182529 3:1868.1699 
15 1:70.82254 2:9.0519543 3:1684.4937 
15 1:56.307053 2:6.7089329 3:1925.4407 
15 1:34.613388 2:6.9016914 3:1979.248 
13.50342660983484 1:-31.736763 2:-4.0577831 3:395.31348 
15 1:-18.588966 2:-4.2510967 3:324.19153 
9.489943590956358 1:-31.560631 2:-4.0683479 3:426.04877 
15 1:-16.132271 2:-4.474041 3:160.50067 
15 1:-15.564705 2:-3.9660263 3:210.10364 
15 1:-17.911324 2:-3.6111641 3:330.78058 
10.56327427347193 1:52.685066 2:1.8653259 3:1847.6577 
15 1:63.06266 2:4.6120663 3:2321.7322 
15 1:82.420151 2:6.3417263 3:2573.0544 
15 1:79.872284 2:7.1744118 3:2583.561 
15 1:60.628014 2:7.1736221 3:2354.2502 
15 1:26.684563 2:6.1667843 3:2076.9158 
0.790265914907424 1:46.970154 2:6.0694313 3:677.46899 
15 1:43.048676 2:6.0917854 3:417.31177 
15 1:25.093964 2:2.525753 3:-171.76343 
15 1:52.70813 2:6.6225891 3:535.96021 
15 1:52.559631 2:7.454689 3:459.42603 
15 1:37.600098 2:7.3746948 3:362.00659 
15 1:36.964996 2:6.6692581 3:286.18945 
15 1:42.207733 2:6.1617393 3:451.49072 
15 1:33.662415 2:6.2314796 3:613.86011 
15 1:40.144867 2:5.8696518 3:484.99976 
15 1:38.320465 2:6.2577095 3:213.77979 
15 1:29.136688 2:6.2608757 3:106.03149 
15 1:21.763733 2:5.3267059 3:73.517578 
15 1:9.5588074 2:3.6766815 3:26.028076 
15 1:18.422089 2:2.4741936 3:-187.09888 
15 1:-4.1938477 2:2.2065773 3:-135.26221 
15 1:-21.707672 2:-1.0103645 3:-124.15039 
15 1:-34.5224 2:-2.9022026 3:-280.99365 
15 1:-37.954681 2:-4.2565155 3:-316.77759 
15 1:75.545258 2:1.943512 3:735.57397 
15 1:70.651703 2:2.9569626 3:810.77283 
1.730550060482244 1:68.810974 2:3.8922691 3:1145.7224 
15 1:-20.45166 2:-2.8068428 3:1201.5605 
15 1:-23.779175 2:-5.6739044 3:813.94678 
15 1:-22.490967 2:-5.3588104 3:936.27515 
7.052599705775226 1:-5.245575 2:-3.9438019 3:1269.7166 
9.303319671468364 1:-8.6721802 2:-3.4253502 3:1402.9912 
15 1:-10.538025 2:-3.4231834 3:1288.2012 
7.790213913594093 1:-32.35495 2:-6.5662422 3:497.32336 
15 1:-28.883865 2:-5.4416504 3:761.07361 
15 1:-27.273712 2:-5.180151 3:789.13489 
15 1:-25.503189 2:-5.429018 3:962.83789 
15 1:-22.910919 2:-5.2643375 3:843.47559 
15 1:4.3503265 2:5.5920944 3:859.5376 
15 1:69.77034 2:9.9308853 3:1287.6799 
15 1:72.944748 2:11.491077 3:1331.3416 
15 1:7.7012787 2:6.8449917 3:897.67383 
15 1:-24.929749 2:-6.9090042 3:-124.84692 
15 1:-21.286102 2:-6.8615074 3:-94.249878 
15 1:12.913925 2:2.876812 3:-127.75586 
15 1:-35.295242 2:-6.6877899 3:676.53229 
15 1:-34.578934 2:-6.8250942 3:735.89191 
0.0063128151860541 1:-30.553223 2:-6.8589458 3:934.81024 
15 1:-29.737717 2:-4.6907845 3:1051.281 
15 1:-28.919792 2:-7.2012405 3:398.09869 
15 1:-15.947113 2:-5.8629284 3:136.42871 
15 1:-15.514847 2:-5.5593739 3:36.356262 
15 1:-17.888779 2:-5.7168159 3:29.56134 
15 1:-19.617432 2:-5.8621845 3:240.18536 
15 1:-16.860458 2:-6.5520668 3:281.0871 
15 1:-18.014381 2:-6.0861034 3:271.10028 
15 1:-16.891098 2:-5.776083 3:211.61499 
15 1:-16.69136 2:-5.9261894 3:185.21552 
15 1:-14.719017 2:-6.118597 3:135.98962 
15 1:-12.918434 2:-5.0721951 3:2.4528809 
15 1:-15.626328 2:-5.2935505 3:212.89569 
15 1:-11.710648 2:-5.0665627 3:287.99854 
11.16634564241295 1:-13.545639 2:-2.9967995 3:-791.84412 
15 1:-60.442139 2:-9.9694176 3:-624.44434 
13.71326442501377 1:-60.348465 2:-10.599918 3:-840.45923 
15 1:-57.901459 2:-10.235435 3:-581.37268 
13.28316689511917 1:-58.932907 2:-9.9523678 3:-610.35315 
4.363975937292126 1:-54.495209 2:-9.8912621 3:-774.03064 
15 1:-28.076691 2:-6.2891769 3:769.54791 
15 1:-28.671646 2:-6.3132324 3:822.3902 
15 1:-43.699539 2:-10.052233 3:655.17926 
15 1:-41.055725 2:-9.2352581 3:666.78082 
15 1:-44.550964 2:-9.9557915 3:714.78088 
15 1:-42.433121 2:-10.895592 3:444.36755 
15 1:36.519836 2:3.4800301 3:-147.36487 
15 1:34.400909 2:3.402483 3:-182.27179 
15 1:30.263123 2:3.2143135 3:-160.29596 
15 1:40.035492 2:4.6358719 3:392.7002 
2.695842957015245 1:-32.057907 2:-5.7174797 3:1227.5236 
15 1:-13.612991 2:-3.7691536 3:1258.0273 
15 1:-43.903839 2:-9.0587578 3:551.38794 
15 1:-45.1082 2:-9.04673 3:523.24524 
15 1:-40.166779 2:-8.8025513 3:503.92325 
14.36620412344065 1:-41.244431 2:-8.5161133 3:458.87827 
15 1:-42.923172 2:-9.089222 3:531.84595 
15 1:-36.994125 2:-8.7951183 3:669.44409 
15 1:-39.018402 2:-8.1445179 3:479.05856 
15 1:-33.625031 2:-8.7553558 3:438.32159 
15 1:-39.411469 2:-8.6576805 3:525.88605 
15 1:-36.140717 2:-9.0053825 3:517.979 
15 1:-32.028214 2:-9.2710762 3:385.25616 
15 1:-30.722504 2:-8.1697464 3:408.22385 
15 1:-30.705353 2:-7.870863 3:418.67471 
15 1:-26.150635 2:-9.1991978 3:394.17026 
15 1:-32.10881 2:-8.8706913 3:475.57761 
15 1:-32.691833 2:-9.0702209 3:400.9357 
15 1:-18.741852 2:-7.6509514 3:323.63513 
15 1:-21.095734 2:-7.9273758 3:348.54706 
15 1:-17.685913 2:-7.4243069 3:168.71808 
15 1:-15.932541 2:-7.6430874 3:330.23788 
15 1:-15.804901 2:-8.0165176 3:149.86716 
15 1:-17.605713 2:-7.9726658 3:23.638428 
15 1:-16.280685 2:-8.169569 3:55.236298 
15 1:-14.368057 2:-7.9570808 3:136.78476 
15 1:49.13382 2:4.0634747 3:74.970825 
15 1:75.265106 2:7.6083851 3:47.536072 
15 1:69.89357 2:8.7946835 3:27.398804 
15 1:34.765244 2:8.7188625 3:15.932617 
15 1:12.603859 2:7.4969006 3:-7.361084 
15 1:30.450516 2:4.7936573 3:455.18707 
15 1:36.883713 2:5.2313461 3:586.51398 
15 1:48.38295 2:5.992794 3:929.83002 
4.704505260013532 1:50.034126 2:6.4274254 3:1039.8904 
12.53956509184691 1:43.437492 2:6.2040329 3:912.86676 
4.912537604034778 1:45.152809 2:6.8031254 3:796.57428 
15 1:46.919991 2:7.2497044 3:796.16718 
15 1:51.339554 2:7.5589294 3:964.04535 
15 1:-8.6057129 2:3.3002396 3:531.08319 
15 1:-15.709137 2:-0.89225197 3:213.7373 
15 1:90.983124 2:8.0015965 3:259.62366 
15 1:155.26295 2:14.392902 3:357.36188 
15 1:178.42842 2:17.604359 3:406.51154 
15 1:178.90376 2:19.120499 3:448.52545 
15 1:189.61449 2:19.853512 3:268.14044 
15 1:215.03084 2:20.756233 3:36.558044 
15 1:236.1552 2:22.35796 3:51.442749 
15 1:250.21037 2:24.445286 3:275.4577 
15 1:258.96808 2:26.214569 3:515.67493 
15 1:263.35138 2:27.422958 3:703.94507 
15 1:264.20123 2:28.251091 3:838.58252 
15 1:263.40002 2:28.787003 3:868.34705 
15 1:261.96252 2:29.018021 3:802.9812 
15 1:258.63208 2:28.980419 3:680.47058 
15 1:253.56007 2:28.635147 3:542.495 
15 1:247.82085 2:27.964386 3:398.92725 
15 1:242.05022 2:27.074345 3:269.15967 
15 1:79.71344 2:9.6912212 3:484.89548 
15 1:78.0914 2:8.7825279 3:286.681 
15 1:83.96875 2:7.1122265 3:135.7948 
15 1:84.085403 2:6.1723156 3:65.072388 
15 1:77.546997 2:6.4845314 3:30.008728 
15 1:69.780609 2:6.4885826 3:-0.29943848 
15 1:62.290497 2:5.7988205 3:2.3611145 
15 1:66.715607 2:4.9621124 3:-40.437805 
15 1:60.8414 2:4.9838009 3:-46.753082 
15 1:63.941284 2:4.4446507 3:37.808228 
15 1:60.516724 2:4.2951069 3:259.65463 
15 1:48.125427 2:4.4106541 3:498.59439 
15 1:58.612518 2:4.8645973 3:731.6095 
15 1:55.379013 2:5.5652008 3:640.55566 
15 1:42.931458 2:5.6469288 3:590.35278 
15 1:-32.139519 2:-4.326828 3:403.93335 
10.97363753592155 1:-21.948753 2:-5.2695313 3:355.70517 
15 1:-18.012543 2:-4.5455093 3:209.22372 
15 1:61.165291 2:7.4137802 3:902.88049 
15 1:76.687469 2:9.9815979 3:1117.1622 
15 1:59.913551 2:10.260889 3:1061.3077 
15 1:21.612976 2:9.7109032 3:1037.2689 
15 1:4.0852127 2:6.7670727 3:687.10974 
15 1:48.266945 2:4.4355602 3:433.86621 
15 1:46.8853 2:5.3877602 3:454.55139 
15 1:18.692207 2:5.2655964 3:436.22046 
15 1:-10.141884 2:-0.3279686 3:-65.581787 
15 1:-17.18779 2:-2.4896231 3:117.31519 
14.97975320409457 1:-24.118103 2:-0.52558517 3:554.76526 
15 1:82.75145 2:6.3975468 3:-73.790771 
15 1:116.59049 2:10.176247 3:-19.012695 
15 1:120.31507 2:11.439974 3:-27.419556 
15 1:112.95445 2:11.652122 3:-98.887451 
15 1:129.09219 2:11.945383 3:-146.94257 
15 1:150.84149 2:13.982592 3:16.083252 
15 1:172.32626 2:16.927591 3:302.62061 
15 1:177.38824 2:18.708868 3:336.88403 
15 1:161.35687 2:18.987268 3:179.24243 
15 1:157.61951 2:18.434206 3:3.638916 
15 1:172.57455 2:16.71842 3:-254.09021 
15 1:191.52521 2:17.85317 3:-245.14758 
15 1:211.29221 2:20.228662 3:-118.95172 
15 1:214.28717 2:21.379156 3:-5.8580322 
15 1:215.88788 2:21.984045 3:66.179199 
15 1:212.95175 2:21.966738 3:58.127075 
15 1:200.10696 2:21.337225 3:-33.63623 
15 1:195.64908 2:20.009817 3:-193.88599 
15 1:197.84775 2:20.012274 3:-316.198 
15 1:188.92184 2:20.722612 3:-237.72614 
15 1:182.35175 2:21.606493 3:-77.76709 
15 1:165.548 2:22.034388 3:116.97778 
15 1:121.33727 2:21.77025 3:176.7312 
15 1:78.14193 2:20.205389 3:113.68903 
15 1:73.052116 2:15.175669 3:-95.351074 
15 1:67.633385 2:10.705751 3:-418.28009 
15 1:61.507355 2:9.6166515 3:-458.83905 
15 1:57.223587 2:8.8523445 3:-435.44965 
15 1:62.381409 2:8.4118176 3:-325.72095 
15 1:57.191231 2:7.7726192 3:-200.36383 
15 1:43.303413 2:7.0679798 3:-141.10034 
15 1:32.885384 2:6.2940102 3:-211.90454 
15 1:26.895401 2:5.1114807 3:-419.45526 
15 1:60.776299 2:3.7960682 3:-644.37384 
15 1:128.13957 2:10.70455 3:-72.747803 
15 1:153.77702 2:13.613472 3:23.268372 
15 1:144.93242 2:14.303745 3:-25.95282 
15 1:123.23 2:13.960154 3:-63.90155 
15 1:127.94572 2:12.257046 3:-139.78162 
15 1:128.55116 2:10.247198 3:-116.1333 
15 1:132.11377 2:11.330959 3:46.319519 
15 1:135.32254 2:11.891907 3:335.35071 
15 1:-66.432007 2:-0.72908974 3:20.792786 
15 1:-62.333305 2:-0.36498451 3:-12.680969 
15 1:-66.051369 2:-1.7805519 3:34.840759 
15 1:-62.828148 2:-2.8066101 3:12.418274 
15 1:24.728134 2:11.08581 3:430.26871 
15 1:19.606384 2:10.190683 3:380.04245 
15 1:16.816727 2:8.6851692 3:281.69623 
15 1:18.193573 2:7.7320862 3:197.67143 
15 1:17.763916 2:7.4641914 3:209.84016 
15 1:10.598785 2:7.0921402 3:269.23804 
15 1:5.1024628 2:6.8218784 3:225.30789 
15 1:6.7003784 2:6.7219391 3:118.51804 
15 1:4.1708374 2:6.3439732 3:99.893082 
15 1:7.2655792 2:6.6221237 3:168.06822 
15 1:13.82605 2:7.952652 3:368.53796 
15 1:13.452744 2:8.9072914 3:430.61108 
15 1:5.3226471 2:8.9380951 3:372.38116 
15 1:-3.0096893 2:8.2066803 3:323.74298 
15 1:-10.609741 2:6.6009197 3:296.36069 
15 1:-18.445496 2:5.1329098 3:384.81598 
15 1:-29.558411 2:3.821312 3:423.18433 
15 1:54.795731 2:5.2164345 3:662.23102 
15 1:73.758209 2:7.6894417 3:1143.9642 
15 1:64.336182 2:7.62397 3:1112.5179 
15 1:-14.299408 2:4.9979305 3:740.24207 
15 1:-12.63237 2:1.9005871 3:156.7085 
15 1:-13.216141 2:2.1023674 3:93.329834 
15 1:-33.154808 2:-0.81931877 3:-382.4762 
15 1:39.135132 2:7.2851753 3:2534.1611 
9.134722799320063 1:-20.89415 2:-2.5507164 3:1854.3542 
15 1:-75.658424 2:-0.86140633 3:248.95325 
15 1:-71.505608 2:-1.152462 3:65.842773 
15 1:-71.044487 2:-1.1489658 3:24.406799 
15 1:-68.09507 2:-0.85855865 3:4.4463501 
15 1:-63.964355 2:-0.81799126 3:-4.920166 
15 1:-62.374794 2:-0.72786331 3:-33.766174 
15 1:-32.221397 2:-1.5026035 3:-172.08398 
15 1:-18.339355 2:1.0553951 3:529.97754 
15 1:-16.620392 2:-1.1749382 3:100.04755 
15 1:-14.794273 2:-0.67541885 3:108.15808 
15 1:-23.868011 2:-0.77245331 3:-108.23523 
15 1:15.802048 2:1.2532234 3:-885.74408 
15 1:164.24921 2:17.464647 3:-823.34235 
15 1:22.396362 2:5.4446068 3:615.24243 
15 1:12.977859 2:7.362751 3:1119.4172 
15 1:-18.276215 2:2.9294605 3:1077.5389 
15 1:4.3721619 2:3.7608395 3:58.247314 
15 1:-14.352402 2:0.23556519 3:-87.13324 
14.45280755370289 1:-30.25235 2:-2.7497673 3:-249.22577 
15 1:-34.239136 2:-3.8446617 3:-259.19702 
15 1:-39.787254 2:-6.2596703 3:-231.80212 
15 1:-42.752777 2:-7.5704041 3:-299.05389 
15 1:-33.805649 2:-5.3495178 3:-319.8046 
15 1:-33.68383 2:-5.5023308 3:-246.50716 
15 1:-30.243942 2:-5.7261696 3:-125.0686 
15 1:-31.839668 2:-5.685318 3:-158.32599 
15 1:-31.745926 2:-5.9656029 3:-177.99377 
15 1:-29.95076 2:-6.3019676 3:-154.85254 
15 1:-14.159767 2:-5.21492 3:11.41568 
15 1:-16.600204 2:-4.8177853 3:279.38586 
15 1:-43.040497 2:-8.8047791 3:-376.21234 
15 1:-36.908737 2:-4.6238327 3:-273.93777 
15 1:-38.413101 2:-6.1929245 3:-306.87628 
15 1:-35.279633 2:-8.7159634 3:-286.742 
15 1:-32.485443 2:-8.3412323 3:-205.46661 
15 1:-34.603027 2:-7.6513977 3:-206.19269 
15 1:-36.72995 2:-7.5328331 3:-224.76823 
15 1:-34.489655 2:-7.8007832 3:-193.3143 
15 1:-38.796753 2:-8.642334 3:-233.31627 
15 1:-40.786972 2:-9.4600983 3:-304.88376 
15 1:-42.845078 2:-9.1088448 3:-298.86417 
15 1:-41.940689 2:-8.7306519 3:-275.79446 
15 1:-38.543823 2:-8.5994587 3:-272.8006 
15 1:-32.515747 2:-8.3496971 3:-261.78308 
10.01680333605416 1:-29.11026 2:-8.4010677 3:-214.44389 
15 1:-32.365433 2:-8.7515278 3:-129.57928 
15 1:-22.213394 2:-7.7804146 3:-91.409821 
15 1:-31.980148 2:-5.4197102 3:-229.21614 
0.5219953346185166 1:-17.835327 2:-6.0132484 3:22.532745 
15 1:53.928589 2:7.5234108 3:1117.946 
15 1:79.463318 2:10.577017 3:1550.6292 
15 1:73.398056 2:11.238766 3:1650.9038 
8.204341927707771 1:56.320328 2:10.981781 3:1757.7012 
15 1:5.1242142 2:7.2254467 3:1119.2983 
15 1:80.777008 2:11.027357 3:2076.7139 
15 1:109.18082 2:15.20002 3:2768.0293 
15 1:101.93839 2:16.192707 3:2747.5305 
15 1:56.484039 2:16.07795 3:2708.4216 
8.024719788745241 1:25.942955 2:14.274351 3:2402.7212 
15 1:47.573669 2:10.449667 3:1865.1956 
15 1:18.637024 2:9.3071003 3:1625.1248 
15 1:9.6165314 2:5.102993 3:1643.3098 
15 1:-9.7598572 2:4.4473743 3:1452.1169 
7.959989026495133 1:-31.870888 2:-1.0266132 3:688.2179 
15 1:-17.25779 2:-3.2417889 3:223.89917 
15 1:-12.851311 2:-2.4391899 3:277.0072 
15 1:-15.326813 2:-2.5230904 3:265.74597 
15 1:17.635101 2:2.8325977 3:-472.74585 
15 1:73.67099 2:8.7073812 3:-557.67786 
15 1:97.356354 2:10.012228 3:-559.22229 
15 1:97.448814 2:9.9594879 3:-538.39215 
15 1:74.375771 2:9.0699787 3:-501.62473 
15 1:23.801384 2:8.2662334 3:-501.78778 
15 1:-57.719376 2:6.1321068 3:-498.81076 
15 1:-41.925228 2:1.7013664 3:-473.87643 
15 1:9.5203171 2:-1.3230648 3:-446.81082 
15 1:32.031891 2:1.6987057 3:-423.64108 
15 1:22.702553 2:2.4723969 3:-425.46594 
15 1:-55.707905 2:0.39265633 3:-420.94852 
11.46022054369716 1:-97.9645 2:-2.3012543 3:166.60019 
15 1:-95.02813 2:-0.94229507 3:291.24371 
15 1:76.113548 2:5.8571396 3:656.34399 
15 1:80.719856 2:7.2770939 3:749.13147 
15 1:96.11776 2:8.7951927 3:746.59924 
15 1:105.51852 2:10.924004 3:705.61011 
15 1:85.721581 2:11.496027 3:677.76636 
15 1:44.377663 2:11.039537 3:673.08362 
15 1:41.421547 2:9.1266518 3:721.41138 
15 1:56.117706 2:7.2964878 3:1050.7546 
15 1:75.297569 2:9.2521763 3:1162.726 
15 1:100.03702 2:12.597515 3:1314.439 
15 1:108.81101 2:14.177185 3:1322.9392 
15 1:117.89438 2:15.21788 3:1329.3916 
15 1:125.67892 2:15.731033 3:1416.7894 
15 1:126.92841 2:15.753201 3:1529.1835 
15 1:130.76593 2:15.632488 3:1581.5474 
15 1:36.05452 2:10.257177 3:-146.40308 
15 1:29.002777 2:7.8131084 3:-231.42349 
15 1:24.314522 2:6.2224464 3:-143.44974 
15 1:20.197525 2:5.3196964 3:73.500916 
15 1:50.151001 2:4.0992832 3:-142.36038 
15 1:79.266815 2:6.480114 3:-328.98337 
15 1:81.896759 2:7.5040474 3:-339.38351 
15 1:56.934471 2:7.39884 3:-337.23422 
15 1:22.263237 2:6.1128693 3:-346.34286 
15 1:10.635239 2:3.6207161 3:-307.54028 
15 1:-15.323936 2:0.66238785 3:578.88019 
15 1:17.138466 2:-1.1816254 3:-320.76904 
15 1:29.613251 2:0.73405266 3:-322.31323 
15 1:12.794556 2:1.001421 3:-320.79752 
15 1:-38.566319 2:-2.4756527 3:-273.32813 
15 1:-83.500679 2:2.1687088 3:164.82925 
15 1:-75.915115 2:2.1044865 3:36.98819 
3.046644246001362 1:-18.574192 2:3.3775988 3:810.76764 
15 1:-16.607208 2:3.9669886 3:821.84955 
15 1:-18.052837 2:4.1981192 3:848.91522 
15 1:-52.754314 2:6.4728718 3:42.751221 
15 1:-32.801003 2:4.9472408 3:474.29718 
14.58010823410078 1:2.163868 2:2.600585 3:-26.194092 
15 1:1.7527084 2:2.4115419 3:-150.8595 
9.726528715434309 1:-3.9082832 2:1.0347633 3:-57.531494 
15 1:-14.383789 2:1.7561073 3:-107.55908 
15 1:-8.5921593 2:0.74898338 3:-66.480713 
15 1:89.33403 2:8.1108742 3:-359.45593 
15 1:159.36195 2:14.2832 3:-435.85706 
15 1:181.05316 2:16.761608 3:-478.50012 
15 1:167.38115 2:17.391819 3:-498.88818 
15 1:110.09312 2:16.989788 3:-507.75458 
15 1:45.356918 2:14.835992 3:-538.90497 
15 1:23.973465 2:9.3668413 3:-587.85406 
15 1:-0.75380325 2:5.1013603 3:1480.8483 
15 1:54.986259 2:6.0560093 3:943.58362 
15 1:45.997559 2:6.7359047 3:891.297 
15 1:14.127369 2:4.7038212 3:585.65063 
15 1:13.215405 2:1.0782471 3:-537.82947 
15 1:36.354897 2:1.839119 3:-1068.3152 
15 1:59.368343 2:7.7734737 3:-997.58539 
1.323144424248439 1:74.73027 2:6.6538258 3:-1001.2841 
15 1:116.48451 2:10.574175 3:-776.47266 
15 1:118.35178 2:12.164705 3:-690.10535 
15 1:120.33013 2:12.477493 3:-642.96436 
15 1:124.98198 2:12.353905 3:-613.55957 
15 1:126.62971 2:12.142473 3:-606.78979 
15 1:127.40305 2:12.377665 3:-621.09534 
15 1:123.7681 2:12.295229 3:-644.6311 
15 1:118.9688 2:11.784275 3:-650.35095 
15 1:116.28117 2:10.973471 3:-647.14478 
15 1:112.86028 2:10.550501 3:-649.40277 
15 1:105.97728 2:10.263746 3:-663.0401 
15 1:98.139534 2:9.6416035 3:-677.94519 
15 1:94.685631 2:8.7217293 3:-699.33484 
15 1:100.6237 2:7.5323257 3:-710.34802 
15 1:119.67055 2:8.5759945 3:-581.21167 
15 1:162.97913 2:13.813957 3:-214.27869 
15 1:191.09006 2:16.185913 3:-94.356995 
15 1:195.45825 2:16.953094 3:-88.432129 
15 1:182.66721 2:16.79752 3:-130.31726 
15 1:186.06442 2:15.778217 3:-292.45078 
15 1:204.86108 2:16.012215 3:-420.53802 
15 1:212.15436 2:17.487381 3:-405.43607 
15 1:227.9216 2:20.304756 3:-260.24283 
15 1:246.30902 2:22.906921 3:-133.03931 
15 1:257.46106 2:24.873177 3:-69.061707 
15 1:262.66867 2:26.053391 3:-49.953491 
15 1:265.03241 2:26.619976 3:-60.722107 
15 1:266.12149 2:26.768551 3:-83.160095 
15 1:266.1189 2:26.740952 3:-91.203491 
15 1:264.92465 2:26.771717 3:-63.058044 
15 1:262.79501 2:26.799694 3:-13.41449 
15 1:262.64435 2:26.813511 3:55.779907 
15 1:262.00482 2:26.829796 3:120.62354 
15 1:261.05612 2:26.984665 3:195.95929 
15 1:261.56784 2:27.167614 3:257.81207 
15 1:262.70996 2:27.264965 3:268.7179 
15 1:263.42551 2:27.327168 3:246.19861 
15 1:263.88278 2:27.414833 3:248.49097 
15 1:264.54584 2:27.562908 3:279.07153 
15 1:265.51959 2:27.657177 3:306.84149 
15 1:265.31421 2:27.842995 3:303.56024 
15 1:264.4548 2:28.095779 3:287.9281 
15 1:264.53461 2:28.164913 3:269.44165 
15 1:264.74799 2:28.133278 3:261.91748 
15 1:264.32849 2:28.339359 3:280.85754 
15 1:263.42587 2:28.616863 3:338.82593 
15 1:262.81833 2:28.683399 3:407.36292 
15 1:262.16913 2:28.501133 3:441.50598 
15 1:261.50974 2:28.356522 3:436.56104 
15 1:260.38129 2:28.362556 3:439.80676 
15 1:258.05139 2:28.377445 3:465.90601 
15 1:254.94064 2:28.237881 3:485.66345 
15 1:252.49673 2:27.918858 3:468.14148 
15 1:250.68546 2:27.613098 3:426.75781 
15 1:248.00012 2:27.35759 3:401.50684 
15 1:244.97284 2:27.141617 3:414.71716 
15 1:242.8942 2:26.967239 3:472.28125 
15 1:241.03549 2:26.791855 3:527.63721 
15 1:239.54999 2:26.656071 3:585.93103 
15 1:238.82986 2:26.541279 3:612.18921 
15 1:238.46417 2:26.367352 3:584.05933 
15 1:236.32617 2:26.054497 3:496.80994 
15 1:233.02725 2:25.636154 3:386.6582 
15 1:230.29666 2:25.191566 3:315.17114 
15 1:228.90897 2:24.789612 3:290.21759 
15 1:228.30783 2:24.49831 3:285.19781 
15 1:227.33438 2:24.353153 3:275.84894 
15 1:227.57523 2:24.421879 3:266.04248 
15 1:228.16733 2:24.606026 3:246.65729 
15 1:230.01355 2:25.035389 3:230.95801 
15 1:232.5994 2:26.101139 3:243.69708 
15 1:235.01093 2:26.908691 3:285.89587 
15 1:236.90726 2:27.206093 3:295.6875 
15 1:235.09375 2:26.783264 3:250.90082 
15 1:228.39008 2:26.103344 3:179.97949 
15 1:220.40414 2:25.361492 3:107.91663 
15 1:218.78018 2:24.630692 3:47.215942 
15 1:221.0621 2:24.388184 3:20.635254 
15 1:219.99124 2:24.700783 3:20.78009 
15 1:216.05225 2:24.851856 3:17.335754 
15 1:209.9772 2:24.606113 3:41.900146 
15 1:201.97458 2:23.92038 3:97.243896 
15 1:191.22412 2:23.029346 3:134.99316 
15 1:176.08543 2:21.773323 3:125.58527 
15 1:154.02483 2:19.988693 3:95.49408 
15 1:127.81834 2:17.487175 3:-20.283325 
15 1:121.71078 2:14.538624 3:-258.38443 
15 1:123.75468 2:12.229204 3:-428.03787 
15 1:121.40376 2:12.332067 3:-429.38596 
15 1:118.60253 2:12.35997 3:-405.84906 
15 1:116.43891 2:11.940664 3:-373.22293 
15 1:114.66338 2:11.460407 3:-344.95682 
15 1:111.30325 2:11.369724 3:-306.67029 
15 1:104.71285 2:11.190344 3:-274.3468 
15 1:99.032486 2:10.821507 3:-260.32764 
15 1:96.558685 2:10.44684 3:-251.19601 
15 1:40.436218 2:3.4457207 3:-150.87183 
15 1:43.180092 2:4.810112 3:116.92261 
15 1:37.639282 2:5.4954739 3:443.24811 
0.9467790596191696 1:-36.478725 2:-5.4951191 3:1007.3956 
10.27576847524727 1:-22.669987 2:-4.3667831 3:1176.9097 
13.41479951730755 1:-30.433239 2:-4.9578638 3:1022.4404 
9.747774131997064 1:-34.276329 2:-5.5761099 3:997.8399 
15 1:-14.021423 2:-2.6977119 3:267.72546 
15 1:40.548523 2:4.8530102 3:90.41571 
15 1:38.858635 2:5.4058914 3:238.34766 
15 1:47.716263 2:5.2086792 3:288.14929 
15 1:-13.513535 2:-0.22062683 3:321.4281 
15 1:-16.998901 2:-0.044130325 3:104.79147 
15 1:20.68811 2:6.1447563 3:2124.0107 
15 1:-14.644768 2:-3.4610996 3:241.62451 
15 1:-15.228706 2:-3.1317501 3:163.37079 
15 1:-17.465096 2:-4.7235622 3:52.077637 
3.766958517365944 1:-12.818077 2:-3.8605232 3:241.21057 
15 1:-12.550858 2:-2.9516048 3:271.2923 
15 1:-15.610657 2:-3.5407848 3:206.69989 
15 1:-16.830826 2:-3.944725 3:81.725769 
15 1:-8.1384811 2:2.3009644 3:19.778687 
15 1:17.124683 2:2.9298077 3:-187.1911 
15 1:24.146526 2:4.1762257 3:-102.21039 
15 1:11.702839 2:4.3135757 3:-55.043457 
15 1:5.3430519 2:3.4209805 3:2.4864502 
15 1:-13.868549 2:1.8155937 3:81.060181 
15 1:7.7687645 2:-0.91652679 3:-433.41098 
15 1:-2.2017403 2:2.9689341 3:79.151917 
15 1:-1.576767 2:3.340373 3:-265.05746 
15 1:-7.3100243 2:3.3015099 3:-404.03876 
15 1:-9.7685776 2:3.15207 3:-420.07474 
15 1:50.706348 2:9.265542 3:609.71454 
15 1:97.291176 2:15.130433 3:1925.8879 
15 1:105.78437 2:17.120426 3:2048.3347 
15 1:80.683876 2:17.391022 3:1939.0549 
15 1:9.748764 2:13.4161 3:1112.387 
15 1:3.6436424 2:6.788764 3:-102.65002 
15 1:16.240753 2:4.854537 3:-166.41278 
15 1:75.373459 2:13.741595 3:1232.744 
15 1:103.42474 2:16.919186 3:1445.6234 
15 1:96.046646 2:17.735962 3:1401.4249 
15 1:51.724899 2:17.510334 3:1366.809 
15 1:2.7783318 2:15.732736 3:1230.0952 
15 1:12.965378 2:10.551039 3:787.99634 
15 1:12.903538 2:7.2000084 3:254.43762 
15 1:7.9877396 2:7.4109306 3:152.93347 
15 1:11.423912 2:6.8285112 3:-15.15564 
15 1:21.453224 2:6.5333614 3:-83.208313 
15 1:17.093754 2:6.549592 3:-51.947449 
15 1:-2.4069405 2:6.3049669 3:-73.323975 
15 1:-4.5554466 2:5.4776773 3:-207.57843 
15 1:16.040581 2:5.093565 3:-280.69284 
15 1:25.710369 2:6.3159781 3:-341.07413 
15 1:30.843243 2:6.7363033 3:-241.30234 
15 1:49.914684 2:9.453578 3:-86.133118 
15 1:68.209343 2:12.71128 3:27.452454 
15 1:83.248833 2:14.683167 3:197.54755 
15 1:95.83342 2:16.389584 3:342.96967 
15 1:103.81767 2:17.783825 3:437.16547 
15 1:106.4967 2:18.823072 3:493.47321 
15 1:104.64189 2:19.36927 3:515.20941 
15 1:100.4118 2:19.461073 3:540.34259 
15 1:95.421021 2:19.173576 3:548.35065 
15 1:90.731606 2:18.641951 3:554.05731 
15 1:86.920952 2:18.066881 3:512.87164 
15 1:84.511909 2:17.514803 3:459.05182 
15 1:12.999779 2:15.741611 3:150.9137 
15 1:23.419914 2:13.917015 3:-264.01175 
15 1:109.13622 2:20.17935 3:288.31158 
15 1:153.26511 2:24.788809 3:535.12543 
15 1:162.45926 2:26.130518 3:408.50677 
15 1:143.46443 2:26.303976 3:332.77008 
15 1:101.97338 2:25.275885 3:222.04065 
15 1:54.638351 2:22.570978 3:52.332275 
15 1:38.956055 2:18.795771 3:-123.05164 
15 1:37.255928 2:14.454263 3:-111.35126 
15 1:42.551758 2:12.404834 3:-193.92538 
15 1:59.364227 2:13.963516 3:-345.32684 
15 1:69.944763 2:15.658882 3:-406.73486 
15 1:69.539795 2:16.254557 3:-413.71506 
15 1:75.600311 2:16.786953 3:-419.26105 
15 1:76.805046 2:16.957163 3:-404.97717 
15 1:67.475769 2:16.772411 3:-379.32126 
15 1:73.241211 2:16.251019 3:-334.16843 
15 1:84.721344 2:17.083672 3:-237.14722 
15 1:85.653381 2:18.42428 3:-172.90778 
15 1:78.369446 2:18.668688 3:-172.95352 
15 1:69.33873 2:18.18129 3:-208.84406 
15 1:62.571411 2:17.119085 3:-270.8269 
15 1:54.512314 2:15.522938 3:-325.92236 
15 1:46.886566 2:14.426913 3:-354.15424 
15 1:51.852867 2:13.816996 3:-372.26364 
15 1:55.670441 2:14.05684 3:-362.0856 
15 1:44.831169 2:14.199556 3:-323.10291 
15 1:30.065506 2:13.727529 3:-306.37601 
15 1:26.813477 2:12.423853 3:-332.28455 
15 1:29.185455 2:11.834408 3:-317.12497 
15 1:27.091827 2:11.934743 3:-254.43828 
15 1:19.476051 2:12.10061 3:-216.56656 
15 1:13.30043 2:11.948474 3:-203.5083 
15 1:9.7807236 2:11.264832 3:-199.24677 
15 1:8.2332687 2:10.566843 3:-221.55681 
15 1:3.6631851 2:9.8723688 3:-244.83656 
15 1:-3.2080841 2:9.3973312 3:-239.9368 
15 1:-11.793236 2:8.2100916 3:-217.09459 
15 1:-17.57637 2:6.2914314 3:-153.49635 
15 1:-23.221245 2:4.3051968 3:387.94785 
15 1:-98.916199 2:2.7211599 3:186.05405 
6.139075740819602 1:-105.53252 2:-0.060798645 3:196.71982 
15 1:-102.36657 2:-1.5506363 3:247.38089 
15 1:-16.678101 2:8.6003771 3:229.21417 
15 1:-18.711617 2:7.9539852 3:123.16101 
15 1:-11.679352 2:7.6467838 3:161.16104 
15 1:-12.839767 2:7.9219599 3:262.29614 
15 1:-10.253838 2:8.4628124 3:368.7854 
15 1:-21.448662 2:8.5095215 3:405.91199 
9.187282442367257 1:-89.705574 2:5.9444342 3:370.7019 
15 1:-19.154449 2:5.4262476 3:770.03052 
15 1:-13.113358 2:6.9180126 3:782.12952 
15 1:-31.05714 2:3.3243484 3:537.14844 
15 1:-9.6074371 2:4.325676 3:419.53271 
15 1:5.5084457 2:7.5471954 3:413.64081 
15 1:2.1988068 2:8.2422113 3:361.17444 
15 1:-12.566872 2:8.0711365 3:303.37079 
15 1:-13.097969 2:4.5106554 3:123.1243 
15 1:-4.7546463 2:5.1394119 3:81.575562 
15 1:6.8644562 2:6.8636217 3:147.5372 
15 1:12.723442 2:7.9391651 3:215.68378 
15 1:-4.6561432 2:7.832303 3:211.88062 
15 1:-19.562569 2:6.89571 3:166.18222 
15 1:1.9126968 2:5.1703691 3:117.00378 
15 1:16.917198 2:6.4058743 3:152.00562 
15 1:20.351799 2:7.0095797 3:164.23819 
15 1:20.183228 2:6.8744173 3:166.99045 
15 1:19.995789 2:6.5900545 3:187.51517 
15 1:23.998116 2:7.0950537 3:257.77643 
15 1:19.042603 2:7.5657454 3:341.2016 
15 1:-15.690121 2:-0.64871025 3:172.8631 
15 1:-16.010853 2:-0.84271049 3:144.62164 
15 1:-22.512257 2:0.13672447 3:506.30457 
2.707297865141736 1:-14.899033 2:-0.3209095 3:295.16327 
15 1:-21.852772 2:-1.2157154 3:347.13458 
15 1:20.538055 2:6.2732315 3:127.13 
15 1:17.13044 2:5.6006908 3:58.710327 
15 1:108.85054 2:8.8472137 3:-146.32794 
15 1:172.46971 2:15.853071 3:436.45355 
15 1:198.13826 2:19.59667 3:612.06317 
15 1:199.55708 2:21.770887 3:665.84406 
15 1:178.26674 2:22.369757 3:668.07257 
15 1:130.86351 2:21.979181 3:661.84479 
15 1:112.73962 2:20.069296 3:560.43927 
15 1:120.63016 2:14.133059 3:332.13324 
15 1:125.58115 2:12.491293 3:153.40295 
15 1:133.84622 2:12.952131 3:34.336914 
15 1:131.89583 2:13.297701 3:-46.182739 
15 1:112.30636 2:13.070774 3:-79.358521 
15 1:88.649574 2:12.102556 3:-98.049072 
15 1:84.141701 2:9.7951717 3:-102.55807 
15 1:82.9011 2:7.7326393 3:-12.76947 
15 1:81.585655 2:7.6864071 3:64.983582 
15 1:79.054626 2:7.7053223 3:-25.931335 
15 1:72.150345 2:7.2951221 3:-158.89603 
15 1:69.778305 2:6.6519203 3:-180.9144 
15 1:65.066475 2:6.2153454 3:-132.66196 
15 1:58.472321 2:5.8338852 3:-90.795685 
15 1:60.383446 2:5.645937 3:-216.24368 
15 1:58.070908 2:5.6640663 3:-289.10397 
15 1:52.635719 2:5.4633369 3:-295.74762 
15 1:47.91774 2:4.6490669 3:-323.69928 
15 1:42.290398 2:3.9888134 3:-349.42508 
15 1:31.630295 2:3.572279 3:-350.05188 
15 1:18.294907 2:3.0131016 3:-332.23547 
15 1:14.435318 2:1.5117016 3:-291.10486 
15 1:15.162483 2:0.12814903 3:-271.03992 
14.93919146533835 1:-24.474129 2:-2.4037399 3:-143.04773 
15 1:42.711143 2:6.0496521 3:183.7269 
15 1:45.603683 2:7.1867504 3:264.51422 
15 1:31.068138 2:7.271183 3:281.68292 
15 1:14.896698 2:6.1954536 3:265.95737 
15 1:36.950623 2:5.1585045 3:255.89923 
15 1:26.240028 2:5.5236378 3:267.67133 
15 1:45.15834 2:3.2217026 3:125.86887 
15 1:59.359245 2:4.9352341 3:56.091797 
15 1:16.675957 2:4.8390503 3:-9.3268127 
15 1:10.601563 2:4.8483353 3:-3.4238586 
15 1:13.442032 2:4.4650269 3:71.546143 
15 1:11.009766 2:3.5322762 3:44.868835 
15 1:121.1994 2:12.263268 3:143.95831 
15 1:118.96176 2:13.932827 3:263.9129 
15 1:101.5675 2:14.062243 3:301.01123 
15 1:84.674133 2:13.371965 3:256.21494 
15 1:65.471466 2:11.084925 3:102.57249 
15 1:49.305176 2:7.7762165 3:-42.219925 
15 1:56.087814 2:6.3306637 3:-15.915863 
15 1:75.367218 2:8.8979816 3:21.989548 
15 1:92.080612 2:11.578943 3:9.5476227 
15 1:99.549973 2:12.720325 3:-64.806107 
15 1:97.630188 2:12.692446 3:-110.3956 
15 1:93.545151 2:11.828623 3:-107.48398 
15 1:90.051117 2:10.103561 3:-77.502502 
15 1:77.022354 2:9.2137032 3:-27.949966 
15 1:58.788452 2:8.503212 3:-1.0466614 
15 1:41.856827 2:7.4400578 3:-19.255875 
15 1:24.454391 2:6.1252689 3:-41.982956 
15 1:-5.1272736 2:3.4845009 3:-23.359619 
15 1:-26.002495 2:-5.3092365 3:-104.54205 
15 1:-22.807724 2:-4.7860222 3:-111.58212 
15 1:-10.477982 2:-4.6044235 3:-12.021317 
15 1:-12.486038 2:-4.6824341 3:-6.477066 
3.753665488707877 1:-11.748878 2:-4.6544495 3:24.265701 
15 1:48.973038 2:4.86413 3:217.0061 
15 1:34.4953 2:4.5031433 3:132.16382 
15 1:-3.0355682 2:3.5808678 3:81.100098 
15 1:40.396255 2:6.4635258 3:1866.2991 
7.58198954120774 1:-74.867249 2:2.8370895 3:1867.9436 
7.047533597666896 1:-78.097389 2:0.14632034 3:-600.83179 
15 1:157.55867 2:19.483688 3:149.37756 
15 1:137.78648 2:19.186127 3:107.82892 
15 1:131.61328 2:18.085075 3:14.30069 
15 1:146.80237 2:18.122471 3:-0.64898682 
15 1:142.75258 2:18.950321 3:69.547455 
15 1:147.38425 2:19.811058 3:110.20041 
15 1:156.28336 2:20.478642 3:156.96664 
15 1:161.11404 2:21.024136 3:203.13885 
15 1:162.70178 2:21.474453 3:266.46506 
15 1:141.7663 2:21.357407 3:343.50546 
15 1:109.5842 2:20.75742 3:352.3096 
15 1:113.73915 2:19.197834 3:227.2547 
15 1:119.18877 2:17.995152 3:157.83063 
15 1:112.0777 2:18.423286 3:154.76483 
15 1:103.22989 2:18.393818 3:172.71167 
15 1:113.97777 2:18.03318 3:327.336 
15 1:113.51378 2:18.837128 3:577.81262 
15 1:98.811829 2:18.976589 3:724.91364 
15 1:92.269943 2:18.296124 3:782.76459 
15 1:88.408249 2:16.101963 3:733.43158 
15 1:90.077484 2:14.812698 3:688.61237 
15 1:88.329819 2:14.685097 3:742.6131 
15 1:79.904327 2:14.328247 3:806.43463 
15 1:72.309921 2:13.476643 3:838.96429 
15 1:62.508606 2:12.541731 3:901.46661 
15 1:53.349884 2:11.641603 3:836.27094 
15 1:49.268631 2:10.850428 3:667.70746 
15 1:50.363098 2:10.960445 3:573.06995 
15 1:46.370697 2:11.228662 3:579.35217 
15 1:40.529144 2:11.146471 3:661.4079 
15 1:34.643143 2:10.812204 3:777.7276 
15 1:22.061569 2:10.378698 3:838.52484 
15 1:13.064804 2:9.7012005 3:837.07159 
15 1:8.8698883 2:8.9220009 3:599.56122 
15 1:-0.77632141 2:8.2158127 3:424.87268 
15 1:-17.345322 2:7.2397194 3:361.21204 
15 1:-30.045166 2:3.9317131 3:620.82837 
15 1:-30.385651 2:2.7180481 3:518.23682 
15 1:-28.387604 2:3.4745712 3:650.74292 
15 1:-31.349594 2:3.3909473 3:682.50879 
15 1:-27.00473 2:1.2468338 3:662.5769 
15 1:-24.682709 2:-0.36781311 3:685.64453 
15 1:9.4104538 2:2.0627823 3:-425.06854 
15 1:8.6233673 2:-0.17753601 3:-365.289 
15 1:76.401054 2:8.904356 3:255.16528 
15 1:109.63557 2:12.807116 3:590.74451 
15 1:107.04948 2:13.909025 3:590.35083 
15 1:69.738075 2:13.770294 3:568.84814 
15 1:10.151649 2:12.406368 3:490.51056 
15 1:2.5439529 2:8.3057747 3:211.15576 
15 1:-16.973976 2:-1.9276543 3:315.89349 
15 1:-15.150742 2:-2.1811199 3:199.47424 
15 1:23.049919 2:3.9726839 3:-137.56522 
15 1:20.703171 2:3.6060352 3:-118.34691 
15 1:10.508774 2:6.967926 3:426.45575 
15 1:2.5611572 2:6.2399387 3:464.97583 
15 1:-18.558578 2:2.4304733 3:330.08362 
15 1:-6.3343964 2:1.8951397 3:4.8987122 
15 1:-5.6747589 2:2.1647472 3:6.0920105 
15 1:-7.2258453 2:2.0555153 3:23.253265 
15 1:-7.3093719 2:1.8176689 3:44.861328 
15 1:-6.4388733 2:1.8188648 3:34.008667 
15 1:-7.6680756 2:1.7576752 3:23.370697 
15 1:-6.0981827 2:2.0951672 3:25.702118 
15 1:-6.3295135 2:2.3586807 3:11.985809 
15 1:-5.9294357 2:2.4654846 3:16.835388 
15 1:-4.7730713 2:2.6087055 3:41.727966 
15 1:-4.4152145 2:2.6758671 3:44.460571 
15 1:-5.3523026 2:2.5566139 3:15.259033 
15 1:5.424118 2:2.9195595 3:21.73938 
15 1:14.593918 2:1.4963779 3:-253.58228 
15 1:22.553341 2:2.2258682 3:-194.83008 
15 1:17.244381 2:1.8270836 3:-243.2655 
15 1:110.46114 2:16.629097 3:-436.73029 
15 1:105.42465 2:12.770458 3:-355.49142 
15 1:92.031647 2:12.553917 3:-280.41602 
15 1:76.193687 2:11.809395 3:-307.09769 
15 1:78.976028 2:9.7142048 3:-369.33948 
15 1:85.337692 2:9.2059612 3:-390.19128 
15 1:84.905624 2:11.339247 3:-318.36545 
15 1:80.150681 2:12.029486 3:-256.858 
15 1:68.410728 2:11.743008 3:-230.93085 
15 1:60.680679 2:10.183039 3:-271.57983 
15 1:68.438072 2:7.6835518 3:-358.3483 
15 1:68.234444 2:7.6120567 3:-349.85703 
15 1:55.54406 2:7.8015919 3:-327.1662 
15 1:43.613655 2:7.2626839 3:-333.35535 
15 1:37.947166 2:5.6355286 3:-354.63974 
15 1:29.299408 2:3.7827549 3:-347.28537 
15 1:20.536713 2:2.3931885 3:-288.28476 
15 1:76.251785 2:4.3263893 3:516.05518 
15 1:131.82121 2:9.7428532 3:537.03955 
15 1:144.513 2:11.858942 3:491.05664 
15 1:123.66054 2:12.324326 3:462.16602 
15 1:72.709831 2:11.785017 3:435.0553 
15 1:71.193451 2:9.9858799 3:467.71423 
15 1:76.213501 2:9.6223907 3:922.84961 
15 1:60.994019 2:9.7728424 3:1179.1268 
15 1:48.58065 2:9.0822258 3:1140.0455 
15 1:45.504631 2:7.0773392 3:956.02258 
15 1:41.705765 2:5.9921818 3:888.15613 
15 1:48.77507 2:5.5078316 3:927.48157 
15 1:28.699203 2:7.2935791 3:1521.729 
15 1:37.904465 2:3.7803097 3:130.46228 
15 1:31.507629 2:4.6155357 3:137.49414 
15 1:13.752655 2:3.7765865 3:-138.53918 
15 1:0.88171387 2:2.7276669 3:-299.83423 
15 1:-4.0857697 2:1.0569534 3:-462.17419 
15 1:-0.13938904 2:-0.37822914 3:-510.67474 
3.00395268430996 1:2.0439911 2:-0.24864578 3:-429.35571 
15 1:-19.662521 2:-0.29673576 3:-134.24277 
15 1:-30.796341 2:-1.7001648 3:-187.59839 
15 1:-35.242065 2:-2.2254429 3:-194.85623 
15 1:-33.478928 2:-7.5595741 3:-287.36707 
15 1:-37.692245 2:-6.7987614 3:-354.48697 
15 1:-40.284348 2:-6.6013508 3:-328.85562 
15 1:-42.329056 2:-6.6764545 3:-266.71866 
15 1:-41.179916 2:-7.0904503 3:-240.87125 
15 1:-38.978775 2:-7.668539 3:-194.19684 
15 1:-26.93013 2:-6.531723 3:-124.52133 
15 1:-23.756897 2:-5.1240444 3:-116.51102 
15 1:-22.180099 2:-5.8101139 3:-93.450928 
15 1:-29.437477 2:-5.8305397 3:-122.90717 
15 1:-15.337311 2:-5.4552078 3:66.191956 
15 1:-14.323776 2:-5.0388069 3:54.93219 
15 1:-16.552536 2:-5.1074753 3:109.03448 
15 1:-16.649338 2:-5.0318489 3:122.31021 
15 1:-16.801857 2:-5.1542377 3:183.31293 
15 1:24.851593 2:2.732748 3:-202.36084 
15 1:21.646301 2:2.8148308 3:-375.20154 
15 1:17.002502 2:2.527441 3:-443.26733 
15 1:14.404968 2:1.8810596 3:-445.07147 
15 1:11.711441 2:1.2994347 3:-377.21912 
15 1:4.8145142 2:0.66978073 3:-388.29749 
15 1:7.0960083 2:0.92724609 3:-397.66766 
15 1:3.7030334 2:1.6303654 3:-283.57721 
15 1:-6.0327835 2:1.1462669 3:-29.045288 
15 1:8.3109207 2:0.99951172 3:-363.69379 
15 1:-7.5173264 2:-0.25362015 3:-528.09705 
15 1:69.356789 2:9.4715748 3:858.57965 
15 1:59.791382 2:7.6961384 3:571.55524 
15 1:65.289001 2:6.1548462 3:408.27448 
15 1:68.154205 2:6.8632603 3:402.28204 
15 1:69.148239 2:7.6927414 3:546.3786 
15 1:70.555313 2:8.7996655 3:745.98187 
15 1:57.568222 2:8.9714432 3:802.94 
15 1:34.361572 2:8.4938183 3:732.79181 
15 1:18.013 2:6.1370907 3:492.20062 
15 1:11.251648 2:0.22152519 3:-379.59952 
15 1:16.24588 2:1.6068516 3:-257.4935 
15 1:-5.9394913 2:2.221138 3:-42.265411 
15 1:14.895363 2:4.3974075 3:10.937317 
15 1:-4.7719345 2:2.5164089 3:74.668884 
15 1:-11.100227 2:1.1999416 3:-77.651794 
15 1:30.016273 2:4.6814041 3:106.70166 
15 1:32.661079 2:6.2526798 3:220.2348 
15 1:46.718094 2:7.7256107 3:381.04211 
15 1:57.46785 2:9.1510124 3:558.00812 
15 1:51.078232 2:9.6810436 3:601.88922 
15 1:27.380127 2:9.3261318 3:604.36597 
15 1:22.272537 2:7.9197369 3:537.66119 
15 1:29.681671 2:5.8675365 3:432.90607 
15 1:-7.6637192 2:4.7629948 3:285.65048 
15 1:-1.6644592 2:1.9561939 3:-27.270203 
15 1:127.60741 2:14.659052 3:1021.0861 
15 1:100.02412 2:14.030853 3:844.01599 
15 1:68.346512 2:12.256123 3:615.39093 
15 1:55.730072 2:9.9995289 3:456.18604 
15 1:67.286301 2:8.5796013 3:459.77289 
15 1:72.021309 2:9.071207 3:675.43445 
15 1:66.320442 2:9.1235428 3:792.93408 
15 1:66.980888 2:8.5545731 3:788.87195 
15 1:77.861641 2:8.8948727 3:733.83154 
15 1:81.16993 2:10.280096 3:670.45508 
15 1:76.380768 2:11.042786 3:570.13611 
15 1:61.943054 2:10.682631 3:469.29803 
15 1:44.365601 2:9.548727 3:331.64142 
15 1:41.686455 2:6.8033676 3:162.96335 
15 1:43.466942 2:4.3386173 3:70.3685 
15 1:48.260284 2:5.6513653 3:190.10724 
15 1:47.410057 2:6.5482826 3:342.73517 
15 1:33.490349 2:6.7501202 3:414.12878 
15 1:15.247726 2:6.1394444 3:449.56818 
4.716458746770149 1:-14.616592 2:-1.9728508 3:280.79935 
15 1:-17.411575 2:-3.082489 3:89.122162 
15 1:-16.08519 2:-1.7334385 3:107.51459 
15 1:9.7369232 2:2.6109467 3:-166.90689 
15 1:-31.3941 2:1.3626671 3:719.92297 
12.66271951307949 1:-35.632397 2:2.885952 3:682.11475 
15 1:-5.7631454 2:5.0369453 3:1378.6677 
15 1:62.495438 2:8.7855282 3:26.809723 
15 1:54.549034 2:8.2220325 3:163.35065 
15 1:55.413132 2:7.1346626 3:223.93814 
15 1:57.213272 2:6.2543716 3:102.00153 
15 1:55.357529 2:6.0329113 3:22.444061 
15 1:55.445465 2:5.9792957 3:-6.6147156 
15 1:57.063263 2:6.3550262 3:-17.861115 
15 1:53.500229 2:6.3981438 3:-42.437164 
15 1:53.247101 2:5.9730053 3:-92.013672 
15 1:50.231506 2:5.0892639 3:-166.05214 
15 1:45.243317 2:5.2508526 3:-183.93695 
15 1:40.050598 2:5.5237827 3:-175.41934 
15 1:35.761612 2:5.3588505 3:-152.6689 
15 1:35.830734 2:5.1709347 3:-150.0163 
15 1:30.554352 2:5.1806545 3:-167.9256 
15 1:18.327133 2:4.5803909 3:-176.12532 
15 1:16.078781 2:3.2365952 3:-181.06026 
15 1:17.908936 2:1.9509449 3:-177.2262 
15 1:-4.3832397 2:1.7498817 3:-44.948242 
15 1:-19.959045 2:-1.0005169 3:-122.47403 
15 1:-22.26696 2:-1.8429794 3:-98.394867 
15 1:-66.865753 2:-2.8316841 3:-31.791962 
12.6109048893875 1:-92.115913 2:-0.72494507 3:1031.3109 
15 1:-21.219154 2:0.54731369 3:1072.2638 
15 1:-18.501373 2:1.7197094 3:1068.6577 
15 1:-8.0719986 2:3.2492218 3:590.93103 
15 1:0.79977417 2:2.8051805 3:43.738281 
15 1:-0.93260956 2:2.6180267 3:34.408295 
15 1:-3.6380615 2:4.199749 3:514.64221 
15 1:-13.268562 2:3.9004707 3:454.2681 
15 1:-0.77591705 2:4.1639671 3:504.15857 
15 1:-12.720863 2:1.9585485 3:194.68964 
15 1:-11.309334 2:1.361433 3:300.36765 
15 1:-12.285416 2:3.7132349 3:308.15121 
15 1:-14.162041 2:1.9237823 3:841.36951 
15 1:22.78672 2:2.1768837 3:-346.24023 
15 1:34.113052 2:4.2714787 3:-348.28159 
15 1:33.99614 2:5.4243031 3:-293.60513 
15 1:27.152657 2:5.5657215 3:-257.58426 
15 1:40.422615 2:5.9679146 3:-134.1171 
15 1:45.806404 2:6.9557686 3:64.415039 
15 1:38.957741 2:7.2637711 3:115.29211 
15 1:32.884392 2:6.9361095 3:96.342346 
15 1:31.33696 2:5.9021263 3:-46.214172 
15 1:36.668404 2:5.5258846 3:-202.37799 
15 1:44.999451 2:5.3701153 3:-278.23047 
15 1:46.915451 2:5.0254307 3:-282.79984 
15 1:36.72142 2:4.7812786 3:-276.10791 
15 1:31.239815 2:4.4300423 3:-296.24417 
15 1:35.680092 2:3.9834518 3:-282.88248 
15 1:40.506714 2:4.3399372 3:-234.08783 
15 1:71.78331 2:8.3750687 3:50.418152 
15 1:89.206863 2:11.490522 3:464.19464 
15 1:79.164574 2:12.343082 3:617.13031 
15 1:48.442345 2:12.091637 3:667.07257 
15 1:22.272842 2:10.559237 3:630.84125 
15 1:-5.5507278 2:6.4947758 3:501.89142 
15 1:-26.057854 2:3.0503139 3:435.5976 
8.174330616803855 1:2.6214676 2:2.3472023 3:1485.2581 
15 1:48.506149 2:8.5768013 3:2109.7649 
15 1:29.927536 2:8.5789223 3:2101.325 
2.176952682103595 1:40.699043 2:7.6148357 3:1958.363 
15 1:117.72952 2:12.227613 3:71.000305 
15 1:108.25364 2:11.495066 3:-33.687378 
15 1:104.98519 2:10.356632 3:-60.855347 
15 1:104.98923 2:9.5949802 3:24.435547 
15 1:103.58015 2:9.0417423 3:-109.43591 
15 1:108.63358 2:8.6966133 3:-237.59995 
15 1:122.71482 2:9.7657585 3:-347.1387 
15 1:140.70508 2:10.712206 3:-293.21255 
15 1:152.20883 2:12.517544 3:-215.97495 
15 1:141.10205 2:13.194153 3:-195.41684 
15 1:124.87404 2:13.017334 3:-214.67657 
15 1:123.6667 2:12.002081 3:-251.14279 
15 1:118.99176 2:11.11834 3:-238.47504 
15 1:113.46138 2:11.240377 3:-131.03088 
15 1:108.19539 2:10.973623 3:2.3751221 
15 1:100.37713 2:10.319191 3:66.822571 
15 1:87.310799 2:9.520668 3:9.4854126 
15 1:91.609283 2:8.9095211 3:-6.5282593 
15 1:88.221046 2:8.2442627 3:-12.123535 
15 1:66.546707 2:7.7637424 3:-11.700256 
15 1:46.378487 2:6.740797 3:-34.046448 
15 1:52.438042 2:4.9942303 3:-75.163452 
15 1:63.223038 2:5.4665394 3:60.535767 
15 1:67.865891 2:7.7986374 3:208.49359 
15 1:57.420998 2:8.3992577 3:214.60193 
15 1:34.203758 2:8.198494 3:189.75903 
15 1:26.796021 2:6.5021 3:149.23096 
15 1:36.406258 2:5.1469555 3:169.28064 
15 1:17.002686 2:5.274229 3:192.9303 
15 1:-7.931427 2:4.4345093 3:175.40784 
15 1:-22.664139 2:-3.7267723 3:-115.07022 
15 1:-12.165283 2:-4.1450539 3:7.0732422 
15 1:-30.102242 2:0.92717171 3:730.51245 
15 1:-23.515556 2:2.1449242 3:633.64941 
15 1:-30.035873 2:2.4754887 3:601.80579 
15 1:-28.231239 2:1.6475563 3:620.88123 
15 1:-24.721771 2:1.4934254 3:593.18652 
15 1:-24.708664 2:1.4767637 3:508.67847 
15 1:-23.289997 2:1.3182764 3:626.59607 
15 1:-18.750435 2:2.4723406 3:726.55994 
1.69502024994704 1:-18.881432 2:2.9927645 3:762.56372 
15 1:-1.3641205 2:3.6600113 3:169.17993 
15 1:-1.946991 2:2.8070793 3:-56.605957 
15 1:-13.183815 2:3.3159237 3:451.09106 
15 1:-13.705162 2:2.6452217 3:507.93829 
15 1:35.335953 2:4.4724197 3:447.48007 
15 1:-3.5466766 2:3.6772633 3:-8.0127258 
15 1:-10.82457 2:-0.31709862 3:-68.926849 
15 1:-15.810196 2:-1.9184647 3:105.57803 
15 1:-16.279755 2:-4.9346905 3:67.643005 
15 1:-18.099419 2:-3.5594692 3:76.026581 
5.1576349681545 1:-15.463699 2:-4.4113731 3:102.82925 
15 1:-15.311646 2:-4.5520649 3:74.491364 
15 1:-16.124702 2:-4.5084953 3:50.954407 
15 1:51.574516 2:5.1357918 3:302.81824 
15 1:54.767548 2:6.1253719 3:276.88074 
15 1:39.071342 2:6.126276 3:265.45288 
15 1:25.192451 2:5.2650127 3:197.75281 
15 1:126.53207 2:18.635084 3:524.06854 
15 1:126.67712 2:18.097654 3:463.33508 
15 1:125.73586 2:17.800303 3:426.55249 
15 1:104.28553 2:17.460676 3:425.77185 
15 1:86.089706 2:16.526403 3:431.33893 
15 1:80.185547 2:14.012476 3:461.12445 
15 1:85.318069 2:12.411274 3:663.02899 
15 1:119.80319 2:12.722128 3:889.45551 
15 1:133.52838 2:13.806488 3:836.07477 
15 1:115.76131 2:14.029205 3:780.07159 
15 1:65.183716 2:13.37599 3:726.07526 
15 1:35.507591 2:11.250889 3:589.98639 
15 1:29.015274 2:6.97229 3:317.24268 
15 1:28.515221 2:4.9386044 3:410.20355 
15 1:-10.745438 2:1.0398769 3:212.17752 
15 1:-19.916016 2:0.4522686 3:336.09616 
15 1:-16.416763 2:-0.27514648 3:334.85281 
15 1:-35.833038 2:6.7482395 3:-244.11023 
15 1:-28.713364 2:-1.2484722 3:-209.73569 
15 1:-28.637573 2:0.92674255 3:-230.00839 
15 1:-39.955231 2:0.65585136 3:-234.65402 
15 1:-14.663185 2:-1.3671913 3:292.07208 
15 1:-3.0547676 2:1.9896793 3:29.812134 
15 1:77.900383 2:10.395819 3:773.09119 
15 1:72.546089 2:10.868139 3:1045.5664 
15 1:62.215927 2:10.565662 3:808.46704 
15 1:54.908112 2:9.5984249 3:590.61951 
15 1:59.654976 2:8.4790707 3:273.15717 
15 1:73.412598 2:7.7178612 3:-173.23566 
15 1:87.068535 2:8.0697994 3:-330.39771 
15 1:86.134392 2:8.5178928 3:-327.30911 
15 1:81.106277 2:8.4374847 3:-296.55371 
15 1:82.436096 2:8.5383034 3:-217.32932 
15 1:80.240456 2:9.0675201 3:-53.00943 
15 1:74.33876 2:9.1893349 3:87.477661 
15 1:74.223488 2:8.9835281 3:140.70587 
15 1:79.251762 2:9.1366615 3:207.16266 
15 1:77.156921 2:9.8901768 3:237.15942 
15 1:62.401283 2:10.143396 3:261.90723 
15 1:50.217087 2:9.6225643 3:296.47034 
15 1:37.031265 2:8.108326 3:286.84491 
15 1:-28.715462 2:-3.2437572 3:-143.73676 
15 1:-27.668808 2:-3.7220287 3:-118.99213 
15 1:-16.053314 2:-2.5450897 3:120.51489 
15 1:10.526276 2:2.6100636 3:-177.03979 
15 1:17.706825 2:2.7986774 3:-249.1037 
15 1:20.50724 2:2.9225664 3:-146.9361 
15 1:-11.510742 2:0.74542046 3:157.43518 
15 1:-5.5546875 2:1.8745041 3:-94.839844 
15 1:-6.8105469 2:0.98929977 3:-77.703735 
15 1:-5.098259 2:2.0480709 3:31.863037 
15 1:-5.5502167 2:2.0757256 3:30.508545 
15 1:58.945564 2:7.067503 3:1041.9592 
15 1:69.210442 2:8.0149918 3:825.6579 
15 1:81.226791 2:8.8568497 3:853.52643 
15 1:84.858772 2:9.6395988 3:981.16595 
15 1:84.408745 2:9.9031544 3:967.18048 
15 1:86.635384 2:10.014244 3:799.44354 
15 1:92.090958 2:10.341478 3:687.84332 
15 1:93.026115 2:10.601372 3:772.38129 
15 1:91.368294 2:10.665949 3:921.42328 
15 1:100.59655 2:10.882286 3:1033.0845 
15 1:105.66657 2:11.051088 3:1114.5068 
15 1:104.15582 2:11.222601 3:1234.4814 
15 1:109.88002 2:11.783503 3:1429.0737 
15 1:114.62582 2:12.505812 3:1610.9753 
15 1:113.96479 2:12.943947 3:1727.5249 
15 1:122.91349 2:13.73716 3:1830.4788 
15 1:135.58893 2:14.690931 3:1601.5955 
15 1:139.27699 2:15.320608 3:1339.821 
15 1:136.53711 2:15.476564 3:1283.8193 
15 1:150.73309 2:16.955568 3:1381.7236 
15 1:153.87018 2:18.145082 3:1383.6936 
15 1:137.57133 2:18.302965 3:1354.7266 
15 1:127.00253 2:17.673487 3:1289.2913 
15 1:126.72758 2:16.176828 3:1361.7659 
15 1:124.23861 2:15.638201 3:1357.6138 
15 1:116.49316 2:15.389841 3:1363.5662 
15 1:116.665 2:15.5543 3:1465.4058 
15 1:117.0339 2:16.145784 3:1584.397 
15 1:102.19367 2:16.124704 3:1703.9893 
15 1:84.595734 2:15.440989 3:1660.644 
15 1:76.318687 2:12.496206 3:1350.9041 
15 1:62.621284 2:10.660093 3:1066.1235 
15 1:45.968544 2:9.6046371 3:1083.4905 
15 1:12.457741 2:6.2221775 3:1670.2358 
15 1:1.8096237 2:4.6709709 3:1432.0171 
15 1:-21.543037 2:0.44731712 3:1079.5457 
15 1:-35.892403 2:-3.0440521 3:1025.5271 
15 1:32.338852 2:3.9887028 3:-105.18481 
15 1:12.864838 2:2.5993614 3:-142.84082 
15 1:-39.738403 2:-9.8729172 3:-190.45781 
7.905748116061862 1:-18.721619 2:-7.8451328 3:277.85706 
15 1:-16.033051 2:-7.6490402 3:309.57849 
15 1:-16.54364 2:-7.4055252 3:241.49432 
15 1:-18.318481 2:-7.1703205 3:136.5061 
15 1:-17.910362 2:-7.1131763 3:90.379059 
15 1:-14.804779 2:-6.9232101 3:64.828247 
15 1:-15.463074 2:-5.1235905 3:58.605621 
15 1:-13.187454 2:-5.5747929 3:0.22036743 
15 1:-13.456573 2:-6.3348675 3:7.4693298 
15 1:-17.340141 2:-6.2750645 3:123.50714 
15 1:-16.482117 2:-5.3817387 3:203.41956 
15 1:9.8190536 2:1.6992512 3:-263.27454 
15 1:19.672012 2:2.414999 3:-144.68945 
15 1:-8.5898743 2:-1.7163086 3:-703.45239 
15 1:-5.5834885 2:-1.4723148 3:-937.1994 
15 1:-8.99366 2:-1.4965096 3:-965.95203 
15 1:-13.809387 2:-1.6282749 3:-929.44073 
15 1:-15.254852 2:-1.9761162 3:-761.39868 
15 1:51.836136 2:1.4899521 3:-107.17383 
15 1:60.192276 2:1.8412991 3:-338.03552 
15 1:70.649353 2:4.1290054 3:-356.40823 
15 1:76.405655 2:6.0106773 3:-305.45898 
15 1:69.359177 2:6.3989639 3:-261.64526 
15 1:59.992111 2:5.8955917 3:-246.00948 
15 1:67.465851 2:4.7392998 3:-234.45377 
15 1:73.934708 2:5.2753639 3:-174.17914 
15 1:74.707779 2:5.6972809 3:-127.24341 
15 1:71.195572 2:5.4786949 3:-116.69006 
15 1:68.707672 2:4.6124439 3:-130.95538 
15 1:66.825943 2:3.3567524 3:-220.05452 
15 1:67.471527 2:2.7587776 3:-179.19833 
15 1:74.647461 2:3.7700748 3:107.0065 
15 1:73.975128 2:4.1452274 3:123.26712 
15 1:69.03241 2:4.0283451 3:72.00531 
15 1:65.700638 2:3.5814381 3:52.779907 
15 1:68.03717 2:3.6743717 3:152.8483 
15 1:72.683197 2:4.0728321 3:249.20493 
15 1:70.382523 2:4.3206177 3:123.17914 
15 1:59.023407 2:4.0599957 3:-59.884705 
15 1:54.116562 2:3.6346989 3:-183.22336 
15 1:64.60585 2:4.4750175 3:-191.5712 
15 1:69.364044 2:6.3592014 3:-69.881897 
15 1:56.065796 2:6.7360077 3:-2.4616699 
15 1:44.013611 2:6.2640362 3:14.430603 
15 1:64.664398 2:4.8586979 3:58.146118 
15 1:63.577805 2:5.1030006 3:20.444061 
15 1:63.537766 2:5.2259521 3:62.922729 
15 1:74.849457 2:6.5355282 3:413.80542 
15 1:68.015259 2:7.4522724 3:601.84698 
15 1:41.260422 2:7.3522205 3:477.72443 
15 1:25.324295 2:6.0948887 3:209.67654 
15 1:-14.238632 2:1.4676952 3:137.4931 
15 1:-31.77211 2:-2.1371746 3:-165.45633 
15 1:-29.375381 2:-1.8948822 3:-160.31859 
15 1:-33.464798 2:-2.805645 3:-178.65036 
15 1:-32.622719 2:-4.3140087 3:-237.29033 
15 1:-23.472626 2:-2.4298 3:-132.88278 
15 1:52.289398 2:4.8480034 3:510.10242 
15 1:74.808769 2:11.167326 3:1097.8885 
15 1:91.030502 2:10.77882 3:1384.8479 
15 1:99.227089 2:12.32785 3:1615.3981 
15 1:99.227142 2:12.825525 3:1595.4745 
15 1:100.16854 2:12.74581 3:1515.5371 
15 1:105.26851 2:12.600924 3:1502.8792 
15 1:108.9139 2:12.757473 3:1522.4376 
15 1:122.27578 2:13.475615 3:1797.5792 
15 1:139.41669 2:14.626381 3:2150.9221 
15 1:159.05743 2:16.570404 3:2267.6814 
15 1:166.00024 2:18.104965 3:2396.1255 
15 1:159.94434 2:18.618595 3:2499.1326 
15 1:148.16144 2:18.430702 3:2613.3481 
15 1:141.25903 2:17.562611 3:2642.0854 
15 1:144.06654 2:16.884689 3:2658.1057 
15 1:154.6299 2:17.458336 3:2934.7944 
15 1:157.16756 2:17.877159 3:3061.2764 
15 1:152.91396 2:17.908955 3:2967.0039 
15 1:154.83504 2:17.630165 3:2664.0081 
15 1:160.23793 2:17.768536 3:2387.468 
15 1:159.30278 2:18.320221 3:2215.4951 
15 1:169.38957 2:19.683861 3:2434.0149 
15 1:174.25987 2:20.657753 3:2628.6213 
15 1:171.02745 2:20.784523 3:2567.2891 
15 1:167.78633 2:20.076618 3:2337.8738 
15 1:163.53932 2:18.975262 3:1797.6427 
15 1:167.92064 2:18.957195 3:1382.3276 
15 1:169.32536 2:19.560673 3:1209.4155 
15 1:158.54143 2:19.795761 3:1144.8538 
15 1:152.46309 2:19.682613 3:1129.4272 
15 1:145.12036 2:18.910877 3:1114.3148 
15 1:132.87546 2:18.086098 3:1127.3042 
15 1:126.1048 2:16.619495 3:1103.3883 
15 1:122.6702 2:14.631187 3:828.31677 
15 1:113.78435 2:12.971087 3:294.60394 
15 1:105.21594 2:11.552404 3:-115.30725 
15 1:98.218559 2:10.39344 3:-275.16541 
15 1:84.812553 2:9.6906357 3:-266.22256 
15 1:72.610397 2:8.894165 3:-217.69586 
15 1:60.965988 2:7.5512714 3:-161.3575 
15 1:51.364738 2:6.7498074 3:-173.56123 
15 1:47.343262 2:6.0776176 3:-169.77377 
15 1:42.060753 2:5.5708771 3:-136.56332 
15 1:37.628273 2:5.2657108 3:-115.13104 
15 1:29.022766 2:4.6743107 3:45.120972 
15 1:-23.071236 2:-1.0490093 3:351.27539 
14.49677483419363 1:-15.772278 2:-2.5454941 3:166.03088 
15 1:-18.552185 2:-0.5256424 3:338.02548 
15 1:-16.162567 2:-2.1485577 3:224.38562 
15 1:-15.572357 2:-3.0826378 3:154.14563 
15 1:11.462479 2:1.1323071 3:-324.19394 
15 1:16.091644 2:1.3702831 3:-322.35919 
15 1:52.766861 2:6.0212078 3:97.609253 
15 1:70.213684 2:9.0842762 3:432.3869 
15 1:55.745476 2:9.6191101 3:472.74756 
15 1:17.192482 2:9.2347755 3:479.47192 
15 1:7.9640884 2:6.9502201 3:262.31335 
15 1:10.689522 2:0.20748711 3:-280.09091 
15 1:60.70797 2:4.3687401 3:-71.757629 
15 1:60.665085 2:3.8556652 3:-74.894226 
15 1:65.120461 2:4.6131954 3:-127.46198 
15 1:61.033485 2:4.9177647 3:-166.81091 
15 1:61.875282 2:4.6898594 3:-210.74365 
15 1:71.761955 2:4.7926102 3:-228.01027 
15 1:73.883606 2:5.4319763 3:-216.9238 
15 1:77.259262 2:6.3243866 3:-191.88869 
15 1:82.151527 2:7.3733654 3:-165.20813 
15 1:77.764328 2:7.6562366 3:-144.02605 
15 1:77.629364 2:7.4195614 3:-88.766663 
15 1:74.386246 2:6.6482182 3:-33.593872 
15 1:61.301498 2:5.9832954 3:-7.8168335 
15 1:60.450806 2:5.1517181 3:-28.714233 
15 1:73.043762 2:4.9553432 3:-11.001801 
15 1:82.561737 2:6.499754 3:111.35184 
15 1:87.785599 2:7.9664574 3:187.08762 
15 1:85.292847 2:8.4295959 3:105.85809 
15 1:75.731079 2:8.2851887 3:38.351868 
15 1:65.452179 2:7.4643402 3:-46.227875 
15 1:67.404968 2:6.3925629 3:-114.65086 
15 1:79.483246 2:6.4978676 3:-39.412079 
15 1:85.12323 2:7.7482414 3:57.547852 
15 1:84.708878 2:8.3810959 3:90.209412 
15 1:81.068115 2:8.3499603 3:61.384491 
15 1:86.788666 2:8.49547 3:7.8257751 
15 1:85.441864 2:8.9113007 3:-33.246826 
15 1:71.822571 2:8.7073879 3:-68.38736 
15 1:69.82637 2:7.5746994 3:-113.80612 
15 1:76.145691 2:6.3460026 3:-95.989502 
15 1:81.426178 2:6.7797947 3:-56.917603 
15 1:85.101074 2:7.1976624 3:17.850555 
15 1:85.983322 2:7.286377 3:107.86862 
15 1:85.407166 2:7.1125031 3:143.45084 
15 1:85.647949 2:6.873455 3:78.902832 
15 1:85.684891 2:6.8140125 3:3.854126 
15 1:87.76236 2:6.8141785 3:-17.93985 
15 1:86.357834 2:6.563139 3:2.7433777 
15 1:76.326431 2:6.1164322 3:9.3251038 
15 1:63.452591 2:5.2825069 3:-46.082184 
15 1:62.40831 2:4.2764759 3:-178.0901 
15 1:57.774353 2:4.4086552 3:-214.57413 
15 1:47.611694 2:4.6286125 3:-177.46692 
15 1:37.464493 2:4.1700535 3:-140.61697 
15 1:41.494705 2:4.8497639 3:61.817322 
15 1:34.068207 2:5.4226646 3:102.1279 
15 1:14.905441 2:5.109396 3:82.324646 
15 1:-2.9232788 2:3.6272678 3:-6.7998657 
15 1:-14.293442 2:0.76223564 3:-125.18994 
15 1:-21.732079 2:-2.3210926 3:-124.09761 
15 1:-16.03186 2:-3.5051899 3:323.43198 
15 1:-15.716957 2:-3.9719925 3:222.14832 
15 1:-15.92878 2:-4.2140217 3:192.31244 
15 1:-13.868248 2:-3.5837536 3:266.17944 
15 1:-16.239433 2:-3.6494064 3:130.40872 
15 1:-105.86197 2:-2.5336075 3:220.66302 
15 1:49.303635 2:6.6217766 3:200.27551 
15 1:53.369827 2:8.1537132 3:269.14594 
15 1:30.931732 2:8.342186 3:289.96832 
15 1:48.663605 2:8.1338272 3:287.8609 
15 1:64.116089 2:7.8743629 3:238.40045 
15 1:68.882721 2:8.272419 3:169.65424 
15 1:59.82019 2:8.6014977 3:137.00903 
15 1:38.892502 2:8.4118118 3:157.41449 
15 1:44.177261 2:8.1486149 3:240.86578 
15 1:56.058655 2:9.1236877 3:457.59601 
15 1:56.017883 2:9.6497135 3:492.45758 
15 1:49.367538 2:9.4904613 3:528.48456 
15 1:57.343811 2:9.3610573 3:753.6795 
15 1:63.505875 2:10.278814 3:1049.5039 
15 1:68.501343 2:11.539875 3:1213.8467 
15 1:76.838654 2:12.81694 3:1383.269 
15 1:77.211655 2:13.433485 3:1539.2507 
15 1:71.213058 2:13.49732 3:1572.5579 
15 1:62.823975 2:12.862045 3:1445.1033 
15 1:64.401993 2:12.102453 3:1252.2207 
15 1:62.729614 2:11.932648 3:1227.1851 
15 1:50.203949 2:11.534294 3:1219.6365 
15 1:51.657166 2:10.70257 3:1117.4729 
15 1:64.836899 2:10.993698 3:1123.6216 
15 1:63.491211 2:11.720467 3:1181.6423 
15 1:59.609863 2:11.743029 3:1274.2827 
15 1:67.038956 2:11.607599 3:1371.0935 
15 1:61.314682 2:11.66222 3:1563.9375 
15 1:31.744614 2:7.9069099 3:1506.7993 
15 1:33.595581 2:6.6511917 3:719.05341 
15 1:32.28157 2:6.8544884 3:410.50104 
15 1:21.907639 2:6.5852127 3:256.59009 
15 1:15.111496 2:5.7043018 3:126.8924 
15 1:-12.891037 2:3.431715 3:1056.5593 
15 1:-42.852463 2:-3.9023991 3:-332.93475 
15 1:-35.441895 2:-2.5863476 3:-311.97931 
15 1:-37.082352 2:-1.8689594 3:-269.07227 
15 1:-42.297836 2:-1.8336468 3:-289.55847 
15 1:-45.662613 2:-2.6432762 3:-345.82611 
15 1:-30.397964 2:-3.7747879 3:407.44931 
15 1:-15.634819 2:-3.8849125 3:222.4816 
15 1:-16.878784 2:-1.7659645 3:97.936554 
15 1:38.084068 2:4.1512413 3:77.127289 
15 1:34.98233 2:5.2151222 3:419.15833 
15 1:33.27681 2:5.9638519 3:358.94043 
15 1:26.291443 2:5.918993 3:264.78717 
15 1:32.150757 2:5.1482697 3:182.47403 
15 1:22.880783 2:5.4340649 3:219.5376 
15 1:12.216782 2:4.9097633 3:204.20889 
15 1:28.490952 2:5.0960445 3:146.62967 
15 1:30.538681 2:5.7908936 3:125.80029 
15 1:32.996094 2:6.4066429 3:123.84149 
15 1:32.539444 2:6.481987 3:142.42374 
15 1:24.807251 2:6.0566654 3:146.50208 
15 1:25.521027 2:5.431839 3:137.40527 
4.974680084872156 1:-18.244522 2:-5.6466084 3:267.41193 
15 1:27.45665 2:-1.1332264 3:-303.45084 
15 1:35.798019 2:0.18304062 3:-294.08859 
15 1:31.577942 2:0.81810379 3:-230.93063 
15 1:-16.572998 2:-4.7236633 3:123.7948 
15 1:-19.158493 2:-5.3795109 3:208.87909 
15 1:-14.880524 2:-4.0596523 3:259.69238 
15 1:-16.573196 2:-3.1583023 3:224.25348 
15 1:-15.306778 2:-5.5513172 3:53.864716 
15 1:-9.7719116 2:-3.9836006 3:-33.204681 
15 1:-14.546494 2:-3.6704578 3:234.06088 
15 1:-17.32959 2:-4.216713 3:251.15689 
15 1:115.03859 2:12.844864 3:1075.9114 
15 1:115.95909 2:13.020693 3:1249.6311 
15 1:108.46275 2:12.924112 3:1221.8291 
15 1:98.820923 2:12.523382 3:1224.0151 
15 1:92.038422 2:11.921604 3:1245.6707 
15 1:80.134567 2:11.325029 3:1277.8877 
15 1:75.629288 2:10.894625 3:1304.2021 
15 1:73.193512 2:10.472195 3:1280.3037 
7.165813898323294 1:66.39267 2:10.355837 3:1301.1111 
15 1:48.767212 2:9.7681484 3:1221.8916 
15 1:50.279327 2:7.3379879 3:866.89398 
15 1:60.060303 2:8.7923851 3:1068.2173 
15 1:-7.8155975 2:8.8095112 3:1199.9482 
15 1:-28.694389 2:-4.8754692 3:387.3667 
2.504058537330872 1:-25.683876 2:-4.5056629 3:379.6842 
15 1:36.192787 2:4.719593 3:157.83435 
15 1:20.126381 2:5.1219063 3:106.04388 
15 1:44.259598 2:6.9873123 3:879.2088 
15 1:14.336342 2:6.8329506 3:875.49615 
15 1:-15.357719 2:0.48167992 3:176.91779 
15 1:-30.56765 2:-3.2671909 3:406.6911 
15 1:-32.917015 2:-6.5270653 3:510.94391 
15 1:-32.462669 2:-6.5253067 3:429.92657 
15 1:21.177956 2:3.0928545 3:-185.99982 
15 1:20.787315 2:3.2964983 3:-197.93085 
15 1:17.718819 2:3.2896767 3:-179.79797 
15 1:16.170044 2:3.0544624 3:-136.77777 
15 1:-15.705482 2:-3.8331718 3:229.36621 
15 1:-14.420059 2:-2.9985847 3:308.82892 
15 1:-7.335762 2:2.1725235 3:27.025391 
15 1:-4.088047 2:2.7752819 3:24.262939 
15 1:-6.6305008 2:2.5900927 3:-170.81213 
15 1:4.2106056 2:3.0465918 3:-209.56299 
15 1:-2.0884323 2:2.911685 3:-156.47778 
15 1:-9.228466 2:2.3771696 3:-66.414917 
15 1:54.30526 2:6.5542173 3:575.36877 
15 1:66.528091 2:7.7414684 3:376.15796 
15 1:133.9801 2:16.49815 3:27.761475 
15 1:175.33188 2:21.534006 3:7.3966064 
15 1:179.07678 2:23.222166 3:-12.907715 
15 1:145.87422 2:23.430773 3:-30.445435 
15 1:71.359322 2:22.55792 3:-37.040039 
15 1:31.392288 2:19.415087 3:-25.36145 
15 1:45.071301 2:10.324449 3:-210.80188 
15 1:34.774788 2:7.5430012 3:598.34595 
15 1:58.654957 2:9.6838779 3:765.58899 
15 1:49.399448 2:10.191922 3:667.81714 
15 1:19.027119 2:9.7661238 3:596.41296 
15 1:10.023209 2:7.4974165 3:384.73547 
15 1:-12.40913 2:1.0241661 3:133.00598 
15 1:58.255985 2:8.7766199 3:935.06445 
15 1:48.476791 2:9.5399055 3:1032.1311 
15 1:10.244888 2:9.2909918 3:1087.4006 
15 1:-16.892475 2:0.18850994 3:105.42322 
15 1:37.729546 2:6.1751842 3:-590.34021 
15 1:35.878662 2:4.2254028 3:-448.75989 
15 1:29.199036 2:3.2933979 3:-130.56018 
15 1:-11.21476 2:2.7519646 3:1430.6295 
15 1:31.717499 2:3.6135311 3:-102.71136 
15 1:21.974884 2:3.2168941 3:-141.17932 
15 1:15.671509 2:2.5675106 3:-195.453 
3.589949679780352 1:-13.848495 2:-0.24579048 3:-114.3811 
15 1:-23.572693 2:1.0383873 3:-246.99609 
15 1:-14.536682 2:2.1583195 3:-95.171356 
15 1:-13.149384 2:2.9787292 3:226.54089 
15 1:-8.2589874 2:3.7236786 3:668.28644 
15 1:-5.4007874 2:3.7443581 3:879.25018 
15 1:-10.05722 2:2.6695938 3:868.8338 
15 1:-19.963181 2:1.768158 3:360.2132 
15 1:-15.843964 2:-3.7174492 3:112.08261 
15 1:-15.985229 2:-3.4969654 3:117.32306 
15 1:-15.696625 2:-3.5246067 3:82.463837 
15 1:-16.30188 2:-3.7632332 3:71.645905 
6.068097138367498 1:-10.793045 2:-3.2856617 3:-54.921722 
4.493624742360741 1:-4.2997589 2:1.7671738 3:-114.24792 
15 1:95.447678 2:10.011505 3:1775.334 
15 1:101.46932 2:11.626936 3:1919.3413 
15 1:78.113075 2:11.708765 3:1868.0696 
15 1:108.0974 2:7.3390999 3:-24.036072 
15 1:121.30416 2:9.2596588 3:-39.706848 
15 1:110.31434 2:9.84132 3:0.75524902 
15 1:94.985245 2:9.817112 3:133.65857 
15 1:78.564606 2:9.3532104 3:462.60028 
15 1:67.674408 2:9.1257877 3:1132.9114 
15 1:51.709244 2:8.1129551 3:1174.4756 
15 1:46.582855 2:6.8654404 3:883.36224 
15 1:-6.6208191 2:3.3398056 3:500.78247 
15 1:-15.631744 2:2.1815453 3:560.57397 
15 1:-29.888626 2:1.4696751 3:490.27124 
15 1:-25.235794 2:0.66556168 3:450.48914 
15 1:-28.668427 2:0.95186996 3:413.68481 
5.56025637637768 1:-59.252869 2:-3.6439075 3:3.2574463 
15 1:-66.308624 2:-7.4416351 3:-498.03082 
15 1:-31.735153 2:-2.444643 3:-207.71204 
15 1:-17.192993 2:0.03928566 3:-116.15161 
15 1:-62.240303 2:-0.37738228 3:-16.633118 
15 1:-39.471626 2:-6.0455303 3:-198.77553 
15 1:-3.1285629 2:1.9564581 3:19.06604 
15 1:21.668137 2:2.1387386 3:-648.35059 
15 1:27.936279 2:2.9810553 3:-581.23077 
15 1:25.282787 2:3.4153957 3:-565.10754 
15 1:26.662571 2:3.3442221 3:-531.26019 
15 1:24.756023 2:3.2206392 3:-517.94824 
15 1:19.771576 2:3.1810932 3:-491.10016 
15 1:20.884308 2:2.826416 3:-463.81635 
15 1:47.31179 2:2.4257288 3:-778.89758 
15 1:69.940536 2:5.5252752 3:-863.42767 
15 1:67.163681 2:7.0449009 3:-841.21033 
15 1:48.07169 2:7.2182455 3:-796.26569 
15 1:29.647247 2:6.5017328 3:-708.3269 
15 1:22.127769 2:4.5783377 3:-477.23605 
15 1:16.995037 2:3.0278406 3:-316.48425 
15 1:9.2202911 2:2.5077868 3:-307.62439 
15 1:28.410458 2:2.8816433 3:-359.62878 
15 1:35.078754 2:3.6947956 3:-354.91644 
15 1:26.30917 2:4.0077267 3:-362.61145 
15 1:11.896347 2:3.4986057 3:-402.29037 
15 1:-2.8191605 2:1.8456039 3:-440.94293 
15 1:-10.004864 2:2.3019075 3:130.28015 
15 1:18.611595 2:0.82131672 3:-287.80219 
15 1:26.934658 2:2.6848335 3:-131.83136 
15 1:62.980888 2:6.8557568 3:1010.8333 
15 1:58.681244 2:7.7986784 3:1025.6726 
15 1:79.023232 2:11.037409 3:-16.202972 
15 1:73.642166 2:9.825861 3:-52.553253 
15 1:67.297417 2:9.0196724 3:-120.58701 
15 1:64.086327 2:7.4951153 3:-197.95821 
15 1:63.283089 2:6.6539307 3:-237.34018 
15 1:63.3657 2:6.984951 3:-215.71819 
15 1:62.100693 2:7.3690567 3:-175.70331 
15 1:52.359169 2:7.1883316 3:-189.71237 
15 1:45.031395 2:6.4276276 3:-226.07806 
15 1:50.278687 2:5.6178188 3:-168.88068 
15 1:54.603783 2:6.2023048 3:-101.30951 
15 1:53.588318 2:6.431284 3:-116.61279 
15 1:47.964714 2:6.1482468 3:-149.4794 
15 1:36.211899 2:5.6554146 3:-201.44981 
15 1:16.142136 2:5.0034447 3:-225.59532 
15 1:-0.64758301 2:3.7069225 3:-235.08743 
15 1:15.934193 2:3.5609636 3:-185.43256 
15 1:11.716366 2:3.5182705 3:-191.61237 
15 1:6.4951401 2:2.9867935 3:-180.69757 
15 1:47.48365 2:2.5593414 3:-287.45758 
15 1:65.716835 2:4.8512287 3:-373.05414 
15 1:55.474678 2:5.3806267 3:-385.19568 
15 1:39.87674 2:5.0932331 3:-347.25476 
15 1:52.265991 2:4.5612831 3:-56.920593 
15 1:49.669472 2:5.2450447 3:706.17816 
15 1:23.133583 2:1.2500954 3:-302.96173 
15 1:27.551918 2:1.7922783 3:-330.5517 
15 1:28.301506 2:2.1395988 3:-270.72668 
15 1:27.722771 2:1.9282703 3:-241.4071 
15 1:25.697327 2:1.3873196 3:-274.90686 
15 1:22.014374 2:1.1343861 3:-292.88843 
15 1:24.616737 2:1.2309551 3:-268.06177 
15 1:24.984749 2:1.3033638 3:-221.76678 
15 1:26.289101 2:1.3050251 3:-171.35345 
15 1:53.415741 2:3.8949032 3:112.98938 
15 1:62.347282 2:5.2664909 3:142.67761 
15 1:69.243454 2:6.5849113 3:171.11578 
15 1:70.377296 2:7.1279583 3:120.0592 
15 1:75.870949 2:7.6323204 3:121.44202 
15 1:93.571442 2:9.3557816 3:279.51727 
15 1:105.48597 2:10.749725 3:500.13934 
15 1:107.54059 2:11.334007 3:433.71051 
15 1:109.67756 2:11.41221 3:186.12189 
15 1:120.66514 2:11.712896 3:45.044189 
15 1:134.89287 2:13.013229 3:191.77576 
15 1:143.59836 2:14.392374 3:431.4812 
15 1:150.62451 2:15.303404 3:689.4082 
15 1:159.08464 2:15.960512 3:1024.1079 
15 1:163.2628 2:16.283468 3:1261.0006 
15 1:170.65881 2:16.751577 3:1143.4305 
15 1:78.457039 2:15.36981 3:432.04297 
15 1:64.43042 2:14.73481 3:482.73987 
15 1:39.395973 2:13.932684 3:465.25708 
15 1:34.932159 2:11.403242 3:36.649109 
15 1:39.141983 2:8.6791 3:-316.76202 
15 1:35.977203 2:8.7676258 3:-282.06055 
15 1:38.321609 2:9.1466599 3:-222.65204 
15 1:35.65506 2:8.9576492 3:-239.93341 
15 1:31.489479 2:8.4664783 3:-175.78302 
15 1:26.273575 2:7.5321922 3:-233.42358 
15 1:13.296112 2:6.5350971 3:-376.4357 
15 1:2.3483124 2:4.9981766 3:-478.57199 
15 1:-0.71668243 2:3.1528969 3:-538.42114 
15 1:-4.3596497 2:2.1040535 3:-568.43066 
15 1:-5.3878021 2:2.1094627 3:-528.91028 
15 1:-8.0251083 2:1.9225788 3:-453.9292 
15 1:-14.764748 2:0.56645584 3:-145.48682 
15 1:-17.465919 2:0.3587265 3:-145.85648 
15 1:-14.693855 2:-0.05565834 3:116.1264 
15 1:-10.931862 2:-0.66531372 3:-70.532593 
15 1:35.704483 2:4.4557133 3:-64.208374 
15 1:33.549728 2:4.8825207 3:-64.522034 
15 1:19.180527 2:4.0491714 3:49.281372 
15 1:10.108139 2:3.5196686 3:41.584839 
15 1:16.120682 2:3.1409836 3:-128.75085 
15 1:16.965363 2:3.8745441 3:-94.741943 
15 1:13.567001 2:4.2770195 3:0.17272949 
15 1:14.545334 2:4.1194324 3:48.222351 
15 1:17.577698 2:3.8463535 3:-91.140686 
15 1:19.274277 2:4.4547291 3:-187.96539 
15 1:18.539795 2:4.7077389 3:-192.52551 
15 1:14.007874 2:4.4944668 3:-145.11145 
15 1:7.8860779 2:3.3360424 3:-180.53815 
15 1:5.2822876 2:0.29659462 3:-437.64365 
15 1:4.3317108 2:0.25739861 3:-461.39349 
15 1:7.7276306 2:0.9483757 3:-440.01321 
15 1:10.210846 2:1.8099022 3:-351.8562 
15 1:7.0073853 2:1.8520794 3:-280.42322 
15 1:-35.791138 2:-0.67699242 3:-316.52032 
15 1:-38.107574 2:-3.4201012 3:-282.67914 
15 1:-58.407257 2:-7.1517849 3:-441.54401 
15 1:-61.956421 2:-7.9623013 3:-456.06226 
15 1:-31.016556 2:-6.5090294 3:-164.56421 
15 1:-29.878174 2:-6.5256519 3:-185.62387 
1.02084767632337 1:-17.157181 2:-3.9767361 3:150.36667 
15 1:-17.465317 2:-3.6643963 3:211.89182 
15 1:-17.340317 2:-3.340704 3:238.69348 
15 1:-15.926804 2:-4.7605362 3:77.789185 
15 1:-19.232285 2:-4.5017319 3:97.961884 
